#Parameter# /_0 {256,80} 327681 ZERO_GRAD
+1.28316164e-01 -6.90514594e-02 +1.71709675e-02 +7.02755824e-02 +3.84995416e-02 +4.16712947e-02 -1.13749161e-01 +6.32175207e-02 +2.89165974e-02 -7.82900527e-02 -1.71008743e-02 +1.29297063e-01 -1.99429784e-02 +1.95902698e-02 +1.29448071e-01 -8.73629525e-02 +4.48528789e-02 +8.09341520e-02 -1.16051063e-01 -1.00841247e-01 +1.18336797e-01 -1.32932588e-01 +1.29081056e-01 -2.70737577e-02 +1.50182331e-02 +1.35221913e-01 -5.79987727e-02 +1.06907681e-01 -5.83458953e-02 -1.50833592e-01 -4.78759408e-02 +8.71781930e-02 +7.78021384e-03 -9.42842811e-02 +1.09125577e-01 -6.23066463e-02 +8.73309746e-02 -1.04951732e-01 +9.55185443e-02 -6.52973801e-02 -8.86877552e-02 -7.40696564e-02 +1.10881947e-01 -9.20177698e-02 +3.64040062e-02 +1.38267651e-01 +9.51221585e-02 -2.45055556e-02 -2.30243783e-02 +1.12923682e-01 -9.47310850e-02 -1.12256095e-01 -3.69375609e-02 -6.16695844e-02 -4.03321274e-02 -2.05736365e-02 -1.02988392e-01 -1.45054072e-01 +7.30143785e-02 -8.57499987e-02 -5.82273304e-02 -5.07454127e-02 -1.40879661e-01 -1.15076289e-01 +1.27789870e-01 -6.32155985e-02 +7.51002729e-02 +7.10536838e-02 +1.30278189e-02 -4.01391722e-02 +3.47015969e-02 -1.04718164e-01 +7.28236437e-02 +3.72909359e-03 +6.59129173e-02 -1.60830781e-01 +8.52207914e-02 -1.43573983e-02 +1.26752377e-01 -7.99258053e-02 -6.69171512e-02 -9.13656950e-02 +2.57620383e-02 +1.14511110e-01 +3.67458910e-02 +4.26919051e-02 -8.16635638e-02 +2.33510602e-02 +1.21167973e-01 +7.71694183e-02 +1.20623805e-01 -4.78691719e-02 -2.46336535e-02 -1.33644082e-02 -6.85853064e-02 -4.74435091e-02 -1.01431459e-01 +1.19716786e-02 +8.17096233e-02 +2.69996505e-02 -1.94101210e-03 -5.27770072e-02 -9.92770642e-02 -1.12733014e-01 +4.15302441e-02 -5.16365701e-03 +1.28369278e-03 -6.04905188e-02 -2.41573155e-02 +2.57618800e-02 -3.21777016e-02 -6.93268627e-02 +1.48075726e-02 +1.08182877e-01 +1.64939016e-02 +2.75264699e-02 +7.32713938e-02 -1.26526788e-01 +1.51276523e-02 +7.75698647e-02 +4.06133607e-02 -1.26487449e-01 -2.00390480e-02 +8.93150494e-02 -1.31474465e-01 -1.65086478e-01 -3.05085722e-02 -9.37324986e-02 +3.69271152e-02 -7.61877671e-02 -7.32603222e-02 +4.02113460e-02 +5.16764931e-02 +4.76459786e-02 -1.16048239e-01 +3.42710204e-02 +1.60569519e-01 -6.78807274e-02 -5.80782965e-02 +1.03939004e-01 -1.58949852e-01 -7.15743005e-02 +6.48832396e-02 +2.35180017e-02 +1.35243937e-01 -6.15117438e-02 -9.16514322e-02 +1.17516905e-01 -4.21392471e-02 +4.15775739e-03 -4.05918583e-02 +1.18997633e-01 +4.44524735e-02 +1.58749409e-02 -9.28609725e-03 -6.54723123e-02 +7.54078701e-02 -1.03900790e-01 -1.29383117e-01 +1.46039829e-01 +7.57753253e-02 -1.13058604e-01 +6.16137646e-02 +4.44630459e-02 +1.09713286e-01 -2.33672298e-02 +5.85142113e-02 +1.21051975e-01 -1.30845895e-02 -1.16929442e-01 -1.19774796e-01 +7.47788046e-03 -6.83930963e-02 -1.16382279e-01 +3.03911846e-02 +8.82369652e-02 +7.22576529e-02 -1.01299465e-01 +1.25767976e-01 +1.95394196e-02 -1.21715770e-03 +2.15157890e-03 -2.31074765e-02 -6.95624724e-02 +1.46797029e-02 -6.70053810e-02 +4.08992730e-02 +1.89819932e-02 -1.09891826e-02 -3.98959741e-02 +3.19086574e-02 +5.29731661e-02 +5.51497154e-02 +1.12978235e-01 -5.20065241e-02 +8.37358534e-02 +1.40081689e-01 +9.77039221e-04 -5.16333543e-02 -3.93473636e-03 +6.81155622e-02 -4.21165042e-02 -4.57629226e-02 -2.13471875e-02 +1.32366687e-01 +1.33818373e-01 +1.25291556e-01 +1.09741196e-01 +6.98281974e-02 +1.52232319e-01 -2.95979697e-02 +1.32431373e-01 -1.01777516e-01 +3.52077670e-02 -9.36312303e-02 -3.91065329e-02 +8.82002041e-02 -2.33898405e-02 +1.29504442e-01 +1.00027382e-01 +1.63596161e-02 +3.33373472e-02 +8.05525035e-02 +9.95288789e-02 +9.84180793e-02 +1.88911725e-02 -1.15284594e-02 +3.61462869e-02 -5.12206964e-02 -5.58794178e-02 -4.90682162e-02 +1.20556608e-01 +3.98034267e-02 +4.00134735e-03 -8.08627680e-02 +1.32625043e-01 +1.16664901e-01 -1.08385816e-01 +6.97178245e-02 -4.02564742e-02 +6.25242069e-02 -1.99987050e-02 -7.19837025e-02 +6.90989271e-02 -1.08152755e-01 +6.93077175e-03 +4.81543839e-02 +1.01661891e-01 -6.95217475e-02 -9.23920497e-02 -4.48027765e-03 +1.74370017e-02 -5.95681407e-02 -8.39967281e-02 -8.09433162e-02 -1.16116546e-01 +6.42348602e-02 -1.07434735e-01 -9.58484486e-02 +2.57195588e-02 +1.06945992e-01 +5.02525456e-02 +8.92923921e-02 -7.59902373e-02 +5.04539050e-02 +2.31646691e-02 -8.42794105e-02 +8.16193447e-02 -8.85763541e-02 +4.10621502e-02 +1.58316493e-02 +4.75294553e-02 +1.32290155e-01 -1.23931564e-01 +1.50707334e-01 -1.39310822e-01 +6.79175332e-02 +2.52560042e-02 +9.89955440e-02 -1.14846624e-01 +6.41467143e-03 +3.34135890e-02 +8.83679539e-02 -7.13174418e-02 -3.82867232e-02 -2.41061077e-02 +6.82184994e-02 -2.29824539e-02 -5.58831617e-02 +1.08258665e-01 -3.52590438e-03 -2.16512680e-02 -7.32688010e-02 -3.64656113e-02 +1.07523076e-01 +7.12353876e-03 +5.74981719e-02 -6.88646436e-02 +6.00900920e-03 +1.26979083e-01 -2.38163788e-02 +1.08382232e-01 -5.97284772e-02 +1.05638616e-01 -7.26200119e-02 +4.32589184e-03 +8.09768513e-02 +2.65589990e-02 +1.81906465e-02 +9.55249593e-02 -5.02474159e-02 -6.64652362e-02 -2.98942085e-02 -6.81257099e-02 -4.47012335e-02 +8.63630399e-02 +5.66819347e-02 +1.16070926e-01 +6.17940025e-03 -2.93255355e-02 +4.11726795e-02 -1.16443530e-01 +1.68469310e-01 -6.51927963e-02 +1.21850437e-02 -4.74434793e-02 -3.55250165e-02 +1.21102557e-02 +4.24739048e-02 +7.79974014e-02 -1.12964839e-01 +2.46200226e-02 +2.10393425e-02 -1.30415365e-01 -3.65238115e-02 +6.34499220e-03 -5.25404103e-02 +1.15418285e-01 +3.22767161e-02 -1.03471264e-01 +1.07562996e-01 +4.65824343e-02 +1.16546899e-01 -1.18556939e-01 -3.21720098e-03 +2.21900530e-02 +9.76663232e-02 +2.83619873e-02 -1.08205117e-01 -1.35679558e-01 +6.62191510e-02 -2.45977696e-02 -3.60089913e-02 -3.90427485e-02 +1.57504119e-02 +2.55348757e-02 -3.81052718e-02 +8.31238031e-02 +4.97444756e-02 -1.61906052e-02 +1.24627687e-02 -1.50843640e-04 -3.52926701e-02 -4.59589921e-02 +5.95869832e-02 -5.10369837e-02 -1.06294617e-01 -1.08917572e-01 +1.38759628e-01 +1.32883906e-01 -1.30043522e-01 +1.86561346e-02 +9.43336487e-02 +9.29133072e-02 +1.25711232e-01 -3.26621197e-02 +7.99819678e-02 +4.32318784e-02 +3.23216058e-02 -1.02246068e-01 +9.00800973e-02 +8.27168450e-02 -1.05847351e-01 -2.68775970e-02 +3.24652679e-02 -4.84335423e-02 -1.07463375e-01 +1.12321533e-01 +1.06777482e-01 -3.52886319e-02 -8.23314711e-02 +1.04115225e-01 -8.75746980e-02 -6.84723556e-02 -3.79202291e-02 -1.05483845e-01 +1.24266401e-01 -5.59819974e-02 -1.27470717e-01 +6.54388070e-02 +1.38142318e-01 -6.07906319e-02 -7.37821311e-02 +8.79661217e-02 +6.45465925e-02 -2.04673111e-02 -4.88053299e-02 -1.31440174e-03 -4.11552228e-02 +6.55914471e-02 -1.03172315e-02 +2.18738969e-02 +1.40102152e-02 -6.28729239e-02 +1.18244644e-02 +3.90369482e-02 +3.06487852e-03 -3.05733755e-02 -9.81697366e-02 -1.01819612e-01 -7.87112489e-02 +4.53081056e-02 -9.08821970e-02 -1.14099518e-03 +2.15677475e-03 -3.71329263e-02 +3.80046368e-02 -4.75699715e-02 +5.61516285e-02 -2.17962898e-02 +8.72919708e-02 -1.15096539e-01 -1.98616553e-02 +4.06969525e-02 +9.99856219e-02 -2.62963474e-02 +1.29551947e-01 -1.86693538e-02 +1.28984079e-01 +9.83613953e-02 -9.42689627e-02 +1.15358837e-01 +5.33093438e-02 +1.26012698e-01 -1.79405324e-02 -3.95944305e-02 +1.28172964e-01 +4.38948236e-02 +4.47340459e-02 +1.42997175e-01 -8.86110291e-02 -1.11254752e-01 +8.32560584e-02 +1.23974524e-01 +3.93468328e-02 +1.18395731e-01 +6.92224726e-02 -1.30256161e-01 -2.29916628e-02 -1.05247967e-01 +4.04012091e-02 -8.03397521e-02 -3.55370194e-02 -9.39693898e-02 +1.35827437e-02 -4.60079610e-02 -1.25294551e-01 +1.02939710e-01 -4.24197614e-02 +3.81801836e-02 +8.40738118e-02 -4.58654240e-02 +6.26621842e-02 +5.22438809e-02 -2.67962785e-03 +9.86875147e-02 -1.24406025e-01 +4.04907838e-02 +1.06848245e-02 -5.41810319e-03 -4.60116230e-02 +4.40641195e-02 -9.97084677e-02 -3.87887433e-02 +4.76736501e-02 +2.25409977e-02 +5.76620512e-02 +1.57579947e-02 -5.09640723e-02 -7.02452213e-02 -3.27875391e-02 -1.81132928e-02 -1.22689895e-01 -1.19770961e-02 -5.92089966e-02 +1.82429776e-02 -4.21404615e-02 -1.00767285e-01 -3.89450677e-02 +5.96625954e-02 +8.81418679e-03 +4.84942012e-02 -8.07948932e-02 -1.15905188e-01 +1.42376587e-01 +4.14850488e-02 +1.03656553e-01 -7.65433535e-02 -5.66715524e-02 +1.35498634e-02 -1.02095000e-01 +3.09726913e-02 +3.43379751e-02 +4.20064256e-02 +1.26837045e-01 -6.15866370e-02 -1.08108483e-01 +1.16908766e-01 +6.98681176e-02 -2.30069458e-02 -1.43654242e-01 +1.01606496e-01 -6.33483306e-02 -4.42019664e-02 +3.56306173e-02 +1.06732585e-01 +1.86893567e-02 -1.29361436e-01 +5.08250259e-02 -4.52055149e-02 +1.04586169e-01 -2.88280821e-03 -7.49263316e-02 +6.88907430e-02 -1.34930998e-01 +1.76770464e-02 +3.26003656e-02 +1.96046643e-02 -2.12275181e-02 -5.76888733e-02 -2.77885702e-02 -5.18242866e-02 -1.29317328e-01 +1.58973895e-02 -1.55309234e-02 -9.71367806e-02 -1.20837711e-01 -1.11706026e-01 -2.58966777e-02 -5.41385151e-02 +3.10873310e-03 -1.12027079e-01 +5.69816455e-02 -8.95708054e-02 +3.81995440e-02 +7.71579370e-02 -1.06846038e-02 -1.34504754e-02 +1.16720870e-01 -1.24300078e-01 -2.19432712e-02 +7.35083744e-02 +5.85927963e-02 +8.84133875e-02 +7.07978755e-02 -1.48845807e-01 -1.51469618e-01 +1.10571176e-01 -1.09440573e-02 -8.83688182e-02 -9.96273905e-02 -7.72755295e-02 +3.82081941e-02 -1.57328155e-02 +1.01982482e-01 +7.11106062e-02 -2.43974626e-02 -1.05273845e-02 +1.36401244e-02 +4.62916903e-02 +5.06137945e-02 -1.06675506e-01 -7.03625977e-02 +1.20722905e-01 +7.25758448e-03 +1.21797761e-02 +9.64754522e-02 +7.29791820e-02 +9.76465419e-02 +6.38425350e-02 +7.82180130e-02 +7.71900057e-04 -8.48507956e-02 -1.26903608e-01 +2.45179385e-02 -1.09460950e-02 +9.09933969e-02 +5.79824112e-02 +4.63244095e-02 +1.29235372e-01 -1.88591518e-02 -1.03454761e-01 +1.00770034e-01 +6.64368719e-02 -3.52722742e-02 +5.69513999e-02 +3.06171104e-02 -5.60803637e-02 +1.54265007e-02 +4.26802225e-02 +8.78175795e-02 -4.09613252e-02 +4.13040854e-02 +7.19247758e-02 +8.28336831e-03 +1.43663399e-02 +4.88181449e-02 -4.56048176e-02 +7.80700371e-02 +9.86045226e-02 +8.09695050e-02 +2.29687039e-02 +7.93010741e-02 +7.96192586e-02 +6.37331679e-02 -8.68993253e-02 +1.07562065e-01 +4.27380484e-03 -1.18544944e-01 -1.07338175e-01 -6.68034852e-02 -9.32667330e-02 -1.17183877e-02 +3.00187413e-02 +1.22543857e-01 -1.03199251e-01 +3.62807028e-02 -8.79348963e-02 +1.56036526e-01 -1.37260810e-01 +4.11766618e-02 +5.91128245e-02 +1.25912517e-01 +1.05158977e-01 -7.67538026e-02 +3.44887637e-02 -8.31193030e-02 +7.19390363e-02 +4.54974957e-02 -4.75052483e-02 -9.97081101e-02 -5.41543923e-02 +1.07142441e-01 -2.49470528e-02 +2.94214692e-02 +1.15623072e-01 -2.67877113e-02 -4.94595133e-02 +5.97828142e-02 -6.51411107e-03 +7.34978467e-02 +2.54561361e-02 -1.01097554e-01 -1.26116052e-01 +6.77568279e-03 -8.69774222e-02 -6.87347651e-02 -9.68708843e-02 +1.19807355e-01 +4.20104479e-03 +6.86520264e-02 -5.92700318e-02 -1.57970823e-02 -7.01769372e-04 -1.11370519e-01 -3.90938111e-02 +1.00123197e-01 -6.08323105e-02 +5.80404401e-02 +4.75743860e-02 +2.64148805e-02 -9.63340849e-02 -1.50500759e-01 -1.20216921e-01 +6.35601580e-02 -7.74393082e-02 -4.70890775e-02 -1.63768992e-01 +9.30682197e-02 -4.89298031e-02 -6.55153915e-02 +2.42352970e-02 -9.17498618e-02 +3.61227943e-03 -1.09960586e-01 -5.60156815e-02 +2.98124533e-02 +2.76942756e-02 -1.60418935e-02 -7.95979276e-02 +1.37375221e-02 -9.54526514e-02 -1.31867588e-01 +3.61478366e-02 -3.34153250e-02 +4.49141078e-02 +1.17279671e-01 +3.62531468e-02 -1.13030031e-01 -6.13358282e-02 -1.26919067e-02 +4.71348763e-02 +1.18259788e-01 +3.55142727e-02 +5.41484244e-02 +3.78839299e-02 -5.47128059e-02 +7.35055059e-02 +8.58454779e-02 -6.00296631e-02 +1.17497042e-01 +1.25475168e-01 -4.99072718e-03 -1.12708099e-01 -1.07779592e-01 -1.86679456e-02 -5.27898818e-02 -5.25113344e-02 -1.44089580e-01 -1.46279335e-01 -4.23982255e-02 -8.94937813e-02 -3.05563286e-02 +1.06412403e-01 -5.31049445e-02 +1.13060385e-01 -1.31797001e-01 -5.87966219e-02 +7.67139867e-02 +8.24750885e-02 -7.85285681e-02 -1.31608218e-01 +8.80658180e-02 -1.18208788e-01 -3.20202745e-02 -3.51931863e-02 +3.54318656e-02 +9.59342867e-02 +1.06743642e-03 +1.16499491e-01 +6.76809102e-02 +4.85780910e-02 +9.04662609e-02 -3.25110368e-03 +4.51707840e-02 +2.79618762e-02 -6.04865626e-02 -3.53105180e-02 -1.26730427e-01 -1.58682633e-02 +2.33505964e-02 -7.21008889e-03 -8.35601389e-02 -4.85094972e-02 +1.14697181e-01 +4.87137474e-02 -1.21991567e-01 -1.48890568e-02 +9.08958018e-02 -9.49912369e-02 -6.57096226e-03 -8.62487927e-02 -2.88940724e-02 +8.47483054e-02 +1.11937217e-01 +4.82066534e-03 +1.20356400e-02 -1.64847579e-02 +3.37160449e-03 -6.33266345e-02 -8.63137990e-02 -1.07397027e-02 +3.68261598e-02 -8.07757676e-02 -9.83818918e-02 -7.29685351e-02 +8.40857774e-02 +2.66468134e-02 +9.60237905e-02 +9.59492549e-02 -6.50317967e-02 -1.03800535e-01 -4.70970273e-02 +7.24897608e-02 -9.02772099e-02 +4.83538350e-03 +7.15201572e-02 -7.81824905e-03 -1.52254186e-04 +3.43889296e-02 +8.37126747e-02 +3.04882899e-02 +6.95047826e-02 -1.20416529e-01 +5.46926819e-02 +5.80857284e-02 +8.88725296e-02 +6.31022733e-03 -2.06695218e-02 +8.24050140e-03 -5.21516204e-02 -2.52058357e-02 -1.01233423e-01 +8.80589187e-02 -7.33570084e-02 -4.34541553e-02 -7.25226551e-02 +1.08157480e-02 -1.20465741e-01 +2.69635171e-02 -1.21024996e-01 +3.66970859e-02 -3.98452282e-02 -1.29358694e-01 +9.02946666e-02 +1.16326608e-01 +7.92258605e-02 -4.31045145e-02 -5.79184741e-02 +9.19894204e-02 +1.38872042e-01 +6.05619811e-02 +1.44337058e-01 +2.01470535e-02 -1.14153706e-01 +1.18973553e-01 -6.08791644e-03 +2.16224398e-02 +5.37663093e-03 +4.07369472e-02 +2.70817056e-02 -4.55630347e-02 -9.81001705e-02 -8.64349380e-02 +1.82587169e-02 -3.78125124e-02 -2.47469805e-02 -4.98098992e-02 -6.84556589e-02 +1.09647892e-01 +1.23314738e-01 +9.69209373e-02 +1.46942567e-02 -4.08980018e-03 -6.53769225e-02 -9.02451389e-03 +5.53681590e-02 -7.68082887e-02 +1.08371533e-01 -9.57484320e-02 +1.13504440e-01 +1.65739451e-02 -4.53138649e-02 -6.05603978e-02 -9.43816155e-02 +6.73004016e-02 +4.54253592e-02 -2.54318118e-02 +8.86112079e-02 +4.13858555e-02 -1.27870396e-01 +7.90243000e-02 -1.00820959e-01 +1.10836975e-01 -9.58949998e-02 +1.49369072e-02 +9.68826413e-02 +1.19901650e-01 -5.38001098e-02 +3.80466096e-02 +1.12664722e-01 +8.37933496e-02 -1.12384044e-01 -5.93728982e-02 +1.08850695e-01 -4.90870029e-02 -9.99021623e-03 -8.56452361e-02 -5.57790883e-02 +7.02856481e-02 +1.92647465e-02 +8.80949274e-02 -2.30273083e-02 -9.04341191e-02 -4.28583361e-02 +6.11990392e-02 +6.15139119e-02 -3.52775976e-02 +7.67387301e-02 +3.32925878e-02 +8.40521455e-02 -2.60968488e-02 +1.06498212e-01 -7.13863820e-02 -1.15065649e-02 -6.57411218e-02 +1.42830253e-01 +9.09803882e-02 +5.71086779e-02 -5.19589968e-02 +5.32523431e-02 +2.27996409e-02 -8.36967304e-02 -1.42235598e-02 +8.17491021e-03 +9.26267654e-02 +9.29465070e-02 +2.90623493e-02 +7.62440115e-02 +4.27338853e-02 -1.04742004e-02 +1.29407331e-01 -3.19780223e-02 +8.22693482e-02 -3.91435288e-02 -6.54216558e-02 +4.62553799e-02 -9.73140821e-02 -3.45605821e-03 +4.47762385e-02 +7.74567947e-02 +9.25615430e-02 -5.17983213e-02 +1.06516846e-01 -2.19015609e-02 +1.06282741e-01 +9.81881749e-03 -9.83308768e-04 -9.37984213e-02 -3.44449766e-02 +1.17276147e-01 -4.09912392e-02 +1.02154471e-01 -6.90472350e-02 -1.40459612e-01 +1.31775737e-01 -1.60206370e-02 -5.18723689e-02 +9.91273224e-02 +1.23079255e-01 -1.20683804e-01 +2.20418666e-02 +1.44264968e-02 +1.31802544e-01 -5.23411781e-02 +1.72743089e-02 +1.34721696e-01 +1.10885136e-01 +9.78728682e-02 -1.00537091e-01 -9.56953987e-02 -5.62406629e-02 -4.25865948e-02 +8.05085599e-02 +8.28884318e-02 +7.17614219e-02 -8.58886614e-02 +7.06598684e-02 -5.58106340e-02 +4.27788943e-02 -6.76648617e-02 +1.19834512e-01 -9.28771049e-02 -7.02598179e-03 +6.36408553e-02 -2.94802189e-02 +6.92773834e-02 -1.03635930e-01 +9.70590860e-02 -1.28507167e-02 -1.57172829e-01 -8.77345279e-02 -1.33272693e-01 -7.52915591e-02 -1.22569367e-01 -7.83122033e-02 +3.37035730e-02 +3.76407020e-02 +7.87870437e-02 -7.50629678e-02 -3.84477638e-02 -7.05806240e-02 +4.78554470e-03 -1.19273871e-01 -1.40814511e-02 +7.76253939e-02 -5.73820493e-04 -2.11000871e-02 -7.49739259e-02 -3.99526842e-02 +1.29977971e-01 -5.48336282e-02 +1.11495756e-01 -1.64000131e-02 -1.10700607e-01 -3.56461592e-02 +1.83942262e-03 -1.07724536e-02 -1.19513661e-01 +3.62855452e-03 -2.67686676e-02 +1.28535166e-01 +1.22555152e-01 +9.36985388e-02 +3.35656516e-02 -1.14012547e-02 -5.98931983e-02 -1.36425436e-01 +9.37411487e-02 +4.97655571e-02 +2.42700912e-02 +1.89930182e-02 -9.89095718e-02 +1.19678639e-01 -1.23835526e-01 +7.99641684e-02 -6.14023805e-02 +3.91930081e-02 +1.00390077e-01 +6.58607036e-02 +8.25240929e-03 -5.44096306e-02 -2.50807647e-02 -1.09460905e-01 -2.29375046e-02 -3.17348205e-02 +2.90736463e-02 -8.22011847e-03 +9.94450748e-02 -7.35661611e-02 +5.35409637e-02 +1.62702380e-03 +9.94034559e-02 +3.64390351e-02 -7.47134835e-02 -1.30768552e-01 -1.16458267e-01 +5.68054654e-02 -8.28088447e-03 -1.13864243e-01 +7.86421672e-02 -1.43795818e-01 -4.69600745e-02 -2.40959451e-02 -1.52794598e-02 -6.20529801e-02 +1.06181078e-01 -1.20787896e-01 -1.17766410e-02 +6.08398579e-02 -1.46728498e-03 -1.19560033e-01 -6.90640584e-02 +2.14748718e-02 -1.54160699e-02 +6.10272512e-02 +1.19426556e-01 -3.97194922e-02 +9.02164802e-02 +4.05224115e-02 -6.55810833e-02 +9.17445645e-02 -1.37412667e-01 -6.31040856e-02 +2.67580012e-03 -6.80760592e-02 +1.29300579e-01 +1.20855588e-02 +3.63413952e-02 +1.21384889e-01 +5.80472872e-02 +4.45939377e-02 -1.31857440e-01 +7.25900680e-02 +3.39049958e-02 -7.77412951e-02 -9.73646343e-03 -1.29421316e-02 -1.20367318e-01 +1.06540203e-01 -3.47947665e-02 -1.16443209e-01 +8.99815336e-02 +3.25923413e-02 -1.57821730e-01 +9.66480821e-02 -4.35596667e-02 +4.70235534e-02 -4.05508559e-03 +9.68556181e-02 -1.43818006e-01 -3.90355401e-02 -9.86675546e-02 -1.57545030e-01 -4.79201134e-03 -4.66137901e-02 -1.15536161e-01 +2.38808095e-02 +9.44185033e-02 +8.09348933e-03 +1.57714449e-02 -1.20405152e-01 +7.05032349e-02 +9.15593747e-03 -1.48277804e-01 -9.08507183e-02 +1.21241018e-01 -4.38340791e-02 -1.12933151e-01 +3.11169457e-02 -1.15845561e-01 +8.29964131e-02 +1.13895200e-02 +6.94167092e-02 -5.45920394e-02 -4.90235090e-02 -9.42464452e-03 -8.35843291e-03 +3.40818614e-03 -1.49527386e-01 +8.34121332e-02 -7.87581354e-02 +1.31876096e-01 -1.35055065e-01 -7.20188618e-02 -3.47165167e-02 +4.86387014e-02 -1.20333791e-01 +7.11159483e-02 +2.44132560e-02 -4.40244041e-02 -1.48250729e-01 -4.31586727e-02 -2.99547333e-03 +2.99866367e-02 -1.34869799e-01 +1.01076819e-01 +1.41521357e-03 -2.97948122e-02 -1.84046235e-02 -3.24217565e-02 +1.20023023e-02 -6.30527618e-04 -5.02885729e-02 +6.54252945e-03 -1.02859475e-01 +9.17504281e-02 +2.40937211e-02 +4.49264720e-02 -1.42121181e-01 -1.11132002e-04 +1.30519671e-02 -8.89698192e-02 -1.67759471e-02 -6.02588132e-02 -5.09266220e-02 -1.41628832e-01 -9.57204327e-02 -5.47575578e-02 +8.39398578e-02 +9.56465229e-02 -3.80535498e-02 +5.82158864e-02 -3.16447504e-02 -6.33809417e-02 -5.96929453e-02 +1.05340056e-01 -5.68616949e-02 +1.73603054e-02 -1.37068316e-01 -5.26443012e-02 -1.14933528e-01 -6.65738434e-02 -6.48564845e-02 -1.31905256e-02 +1.26906350e-01 -6.72020614e-02 -1.08246870e-01 -4.84862551e-02 -8.67243763e-03 -1.23000577e-01 -1.79045610e-02 +3.81639116e-02 +6.26204461e-02 -6.55984059e-02 -3.19449082e-02 -9.31608751e-02 -4.21565473e-02 -1.65445253e-03 +3.07116564e-02 +5.93599156e-02 -1.79928578e-02 +7.27197155e-02 -1.36770293e-01 -8.17699879e-02 -6.79090023e-02 -6.93513453e-02 +4.01208326e-02 +5.13189882e-02 +7.19542205e-02 -9.24549922e-02 -1.41028121e-01 +3.81142162e-02 -3.86191644e-02 +1.03794977e-01 -7.61897713e-02 -1.10748895e-01 +7.49959722e-02 +6.79419711e-02 -1.14065193e-01 -5.73456809e-02 -3.75387333e-02 -5.60294604e-03 -3.85739915e-02 +1.10408679e-01 +9.86196548e-02 +9.13900435e-02 -7.74137080e-02 +8.20431411e-02 +1.31257638e-01 +7.20133483e-02 -1.20617501e-01 +3.54013480e-02 +8.14175457e-02 +1.04819074e-01 -1.41985789e-01 +9.70147774e-02 +8.03650767e-02 -1.38219222e-01 +1.40909329e-01 +8.05995390e-02 +9.82765928e-02 +8.76712501e-02 -1.02779344e-01 +8.60213861e-02 +2.31647026e-02 -1.90083981e-02 -1.48606881e-01 -1.84472855e-02 -2.81373952e-02 -1.25621349e-01 -2.11087707e-02 +6.27437234e-02 +4.55019586e-02 +6.98192324e-03 -3.89200151e-02 -9.65697244e-02 +8.66621640e-03 -4.19521220e-02 +2.16165278e-02 +2.74542030e-02 -9.01947916e-02 -1.21362127e-01 +4.09487113e-02 -3.01043540e-02 +9.52050239e-02 -1.80778578e-02 +1.21295620e-02 +9.27852243e-02 -1.11280434e-01 -2.92695556e-02 -3.18232216e-02 +5.09523787e-02 -9.63508189e-02 -3.86635363e-02 +2.70869047e-03 +5.82286306e-02 -1.29273877e-01 +6.39376231e-03 -4.67231981e-02 -1.21225230e-01 -3.51008289e-02 -2.79308595e-02 -1.15892053e-01 -1.22091964e-01 +5.06365038e-02 -7.61623606e-02 +1.00853622e-01 +9.69949295e-04 -8.21690932e-02 +1.19388133e-01 +1.24972112e-01 +7.40544572e-02 -2.21961215e-02 +4.06162255e-02 +1.35062397e-01 +1.53527956e-03 -8.79543833e-03 +4.32296693e-02 +9.99477040e-03 +3.03362263e-03 +1.00626638e-02 +1.30527187e-02 +4.14669607e-03 +2.00926252e-02 -4.00558896e-02 +2.88261119e-02 +1.19836014e-02 +1.50060758e-01 -1.07782595e-01 -1.53382774e-02 +1.32995039e-01 +7.01957941e-02 +9.70204398e-02 +1.03604682e-01 +8.71983394e-02 -9.22400206e-02 -1.53277460e-02 +7.04746619e-02 +7.92793408e-02 -9.01525766e-02 -3.25995199e-02 -1.18889031e-03 -2.46195905e-02 -8.09057876e-02 -1.29678085e-01 +4.90955310e-03 +6.23165779e-02 -9.29962993e-02 +7.15877712e-02 +4.64448072e-02 +1.63021963e-02 -3.84959839e-02 +5.91805205e-02 -3.06330565e-02 -8.77882093e-02 +7.97097906e-02 +5.60826361e-02 +5.72342484e-04 -9.02540088e-02 +7.45966583e-02 +5.59544712e-02 -1.04687460e-01 -4.25457582e-03 -8.44130814e-02 -1.11947134e-01 -1.40836090e-01 +2.99338419e-02 +1.01560540e-01 +2.34903358e-02 -5.75366057e-02 -2.22178996e-02 +9.70213488e-02 -2.70643923e-02 +5.30329626e-03 -9.11558419e-02 -1.22182027e-01 +5.79149788e-03 +7.52523988e-02 +5.75978716e-04 +7.19206035e-02 -4.84873317e-02 +5.93183674e-02 +3.40377865e-03 -3.98854688e-02 -2.17518071e-03 +8.68543163e-02 +3.67621966e-02 +8.61102939e-02 +9.49164107e-02 +3.63035351e-02 -4.16231602e-02 -1.06309792e-02 +5.24341827e-03 -7.19417334e-02 -1.24641135e-01 +7.06834272e-02 +4.76635285e-02 +8.58929530e-02 +8.37640762e-02 +1.13269098e-01 +8.76844302e-03 +8.10916573e-02 -1.27454782e-02 +1.03993282e-01 -8.28336775e-02 -5.60397133e-02 -9.33055803e-02 -2.89294869e-03 +1.21839112e-03 -1.85441412e-03 -1.01620499e-02 +7.79614374e-02 -9.99116004e-02 +6.78758398e-02 +1.16271399e-01 -3.92777920e-02 -2.81697381e-02 -4.53251265e-02 +5.51338308e-02 -1.32205307e-01 +5.70885129e-02 +8.05334467e-03 -5.35104983e-02 -1.13028355e-01 -7.14132190e-02 -8.63100514e-02 -8.04577395e-03 -4.76329029e-02 -8.51370841e-02 +1.23488709e-01 +1.28583908e-01 +1.02325445e-02 +3.11771575e-02 -6.78791925e-02 +1.75386462e-02 +6.23862296e-02 +7.03275651e-02 -1.06879398e-01 +4.66820821e-02 -4.92744632e-02 -6.14982843e-02 -5.24113290e-02 -5.87993599e-02 +9.35203116e-03 +1.07060045e-01 -7.74164051e-02 +5.18636517e-02 +9.38685313e-02 +2.24409569e-02 +8.14276189e-02 -1.27721559e-02 +1.27854988e-01 +6.21489026e-02 +5.28854765e-02 -8.76232311e-02 -1.72447506e-02 -2.45841388e-02 +1.38275148e-02 -4.26077005e-03 +6.21148460e-02 -7.19052777e-02 -1.44875526e-01 -2.39777472e-02 +6.25983030e-02 -6.52590543e-02 +1.07728712e-01 -3.67074348e-02 -6.16168156e-02 -1.02466755e-01 -2.40522157e-02 -6.95473254e-02 -5.88734038e-02 -9.45045613e-03 -5.07146977e-02 -6.25967532e-02 -8.21252763e-02 +1.01618148e-01 +7.99020827e-02 +6.54826984e-02 -2.05683727e-02 -9.44942310e-02 -1.22606471e-01 -7.96732754e-02 -3.55208218e-02 -5.18480875e-02 -3.79330367e-02 +1.12107500e-01 +9.77454185e-02 +7.22682551e-02 +6.22454938e-03 -4.21391912e-02 -3.94717790e-02 +5.23046181e-02 +5.98215759e-02 -9.56628993e-02 -3.14072566e-03 +1.12513527e-01 -6.56242967e-02 +6.67895451e-02 -9.89702940e-02 +1.17060758e-01 -7.71890730e-02 +1.13150775e-02 +7.96793923e-02 +1.39275221e-02 +5.10527082e-02 -1.67764127e-02 -2.35918611e-02 -1.24825574e-02 -2.66923718e-02 +2.32493524e-02 -8.20437893e-02 +2.40426101e-02 +4.68138121e-02 -7.19958916e-03 +8.39714110e-02 -4.20080274e-02 -9.13240835e-02 +7.45401625e-03 +1.46143194e-02 -4.83403215e-03 -1.20512679e-01 -5.67340069e-02 -1.20639905e-01 -3.06734536e-02 -6.47543073e-02 +8.81887898e-02 -1.17960766e-01 -1.32524610e-01 -8.30710977e-02 +3.22678313e-02 -6.40366673e-02 +8.23706686e-02 +6.73403144e-02 -3.64295654e-02 +6.77051917e-02 +9.55501646e-02 +2.81627998e-02 -3.19065638e-02 +1.32424623e-01 -7.26165697e-02 -1.15510620e-01 -1.97986029e-02 -6.34560287e-02 +1.11453265e-01 +1.38764009e-01 -3.55433114e-02 +4.40502129e-02 -1.11262120e-01 -8.95378590e-02 +7.97816962e-02 -3.56007069e-02 -1.14432417e-01 +8.53085658e-04 +8.06210116e-02 +5.78364776e-03 -1.35719106e-01 -1.41648740e-01 -2.31786463e-02 +1.05528548e-01 +6.59555495e-02 +2.39135101e-02 +3.84372771e-02 +7.60182552e-03 +3.07172947e-02 +1.85687132e-02 -1.09504081e-01 +1.68194119e-02 +6.44536316e-02 -1.11368604e-01 -4.56669517e-02 +1.69898551e-02 +7.74876550e-02 +2.73780804e-02 -9.84547511e-02 -1.04887374e-02 -4.38098162e-02 +9.54186693e-02 +1.40447449e-02 +9.38614830e-02 +1.26277864e-01 +3.64484303e-02 -3.46389301e-02 +1.14753768e-01 +1.41718553e-03 -4.97506186e-02 +2.12686844e-02 -4.18566652e-02 -8.26542899e-02 +1.09884225e-01 +3.58570032e-02 +1.09476626e-01 +3.11091878e-02 -3.69399600e-02 -3.98184778e-03 +4.79647778e-02 -2.46880315e-02 +9.32543166e-03 +9.18256566e-02 -6.38456047e-02 +9.36604813e-02 +2.93087736e-02 -8.35541338e-02 +8.67696553e-02 -6.19815402e-02 +3.72241326e-02 +1.19347423e-02 -8.51495117e-02 +9.39341411e-02 +7.11320015e-03 -8.27175379e-02 -1.01262971e-03 +1.22820228e-01 +2.75288802e-02 -8.27584490e-02 -4.89163920e-02 -9.41639394e-02 -3.20133418e-02 -1.09204911e-01 -4.63281050e-02 +7.99298361e-02 -1.56610817e-01 +2.07734667e-03 -1.63388271e-02 +9.81190354e-02 +1.00160815e-01 -8.15893263e-02 +3.80531438e-02 -6.71811104e-02 +1.14990465e-01 -1.02277301e-01 +3.78249236e-03 -3.36803459e-02 +1.15974583e-01 -4.90284227e-02 -9.98971537e-02 -7.76961222e-02 +9.28575844e-02 -3.42804678e-02 +4.65625385e-03 +1.06531039e-01 -9.28719416e-02 -5.40046543e-02 +8.37762579e-02 -7.51057193e-02 -4.70763855e-02 -1.13049462e-01 -1.06543213e-01 +1.32606953e-01 -5.53148203e-02 +1.23900615e-01 +7.00576305e-02 -1.09057195e-01 +5.45945019e-03 -3.31467506e-03 +8.25842768e-02 -9.31861624e-02 -7.66612962e-02 +9.91794243e-02 -8.24992210e-02 -6.44162372e-02 +8.79970416e-02 -8.14694613e-02 -7.17722401e-02 -1.40112350e-02 +4.24111299e-02 +4.62648347e-02 +3.71455699e-02 -4.82502300e-03 -8.88719261e-02 -6.88368361e-03 +6.83268085e-02 -2.79396940e-02 +4.03406732e-02 +6.28959388e-02 -1.30367968e-02 -7.44158104e-02 -7.60968029e-02 +9.01588872e-02 +1.14007248e-02 -6.42291736e-03 +1.27426535e-02 -3.73277292e-02 +5.13748638e-02 +4.07224111e-02 +3.74984406e-02 +4.15156037e-02 -5.51163740e-02 -1.18794874e-03 +8.46210569e-02 +1.71330385e-02 -3.42485383e-02 -9.46800634e-02 +4.11104187e-02 +5.99508025e-02 +1.13430902e-01 -8.08044523e-03 -8.69155303e-03 -7.76727125e-02 -9.36093181e-03 -7.65723437e-02 -9.97955501e-02 -3.61205377e-02 +1.23710364e-01 -1.01115696e-01 -6.45332262e-02 +1.19000688e-01 -9.18927193e-02 -8.80620256e-02 +8.74177366e-02 +4.59538735e-02 +1.81381162e-02 -6.53421059e-02 -4.18702029e-02 -1.12964697e-01 -7.16154128e-02 +3.94658484e-02 +3.44634317e-02 +2.18133163e-02 -9.42539945e-02 +6.78264871e-02 -2.56822109e-02 +1.62300188e-02 -1.34265661e-01 +1.02152020e-01 +9.71262604e-02 -1.31706730e-01 -1.88522413e-02 -1.19784318e-01 +3.07083651e-02 -2.23104935e-02 -4.15479988e-02 +5.57292253e-02 -6.45092921e-03 -8.13498646e-02 -7.59869218e-02 -1.31287128e-02 -1.19289711e-01 -7.77718201e-02 -1.50329852e-02 -8.13589096e-02 -1.42641380e-01 +8.44132602e-02 -1.71487126e-02 +2.71392819e-02 -7.67275840e-02 -1.40307471e-01 -1.39047101e-01 +1.16920575e-01 +1.59056280e-02 +9.45279375e-02 +1.33225787e-02 +7.37276450e-02 -2.06892453e-02 -4.62751724e-02 -7.66548589e-02 +1.10806592e-01 +4.64834310e-02 +8.25354680e-02 +1.08920135e-01 +2.08585449e-02 -1.05011210e-01 +7.42680207e-02 -1.38150647e-01 -8.43928829e-02 +9.67113674e-02 -7.06725419e-02 -4.74768803e-02 -1.12217113e-01 +1.09744549e-01 -5.11316489e-03 +6.42028749e-02 -9.27882791e-02 -1.21042378e-01 -9.68233272e-02 -9.03395340e-02 -3.26751694e-02 -9.28020924e-02 -5.70550561e-02 -9.06349123e-02 -3.52358073e-02 -1.24087468e-01 -5.99253029e-02 +3.00908741e-03 +3.94179709e-02 +1.35272769e-02 -1.06776856e-01 +4.43297401e-02 +1.21132016e-01 -3.81882675e-02 -4.27853577e-02 +1.03456713e-01 -1.31075680e-01 +7.27901384e-02 -9.05934796e-02 -3.92438136e-02 +1.12405404e-01 +5.52452393e-02 -3.83961871e-02 -7.48950541e-02 -6.98597431e-02 +3.76545601e-02 -1.24952219e-01 -1.24276057e-01 -6.93733245e-02 +5.39542325e-02 +3.03202793e-02 +1.00830533e-01 +5.52071817e-02 +7.11761937e-02 +1.31982118e-01 -5.07882498e-02 +9.15979743e-02 -8.90893042e-02 +4.41994965e-02 +1.29008710e-01 -1.11428417e-01 -1.24669103e-02 -2.78650708e-02 +1.24964766e-01 -7.84643218e-02 -1.03764839e-01 -8.00603926e-02 -7.51697645e-02 -4.81286310e-02 +1.50511255e-02 +5.87265790e-02 +1.22687928e-01 +1.25507072e-01 -3.52759962e-03 +4.76620905e-02 +7.97960255e-03 +8.79099518e-02 +9.16536227e-02 -8.52514431e-02 -1.23018110e-02 +6.36413246e-02 -8.69737044e-02 +7.99540877e-02 -5.30928820e-02 +1.53315170e-02 +2.36201975e-02 +9.07649547e-02 -3.08170132e-02 +2.97104008e-02 -8.74895900e-02 +1.38877435e-02 +2.86276191e-02 -9.68742222e-02 -4.93304394e-02 +1.18110208e-02 +1.34225830e-01 -9.47679207e-02 +1.38278753e-01 -4.48620040e-03 -7.95810074e-02 +1.13590389e-01 -6.94695041e-02 +3.81272212e-02 -6.73483387e-02 -5.54230176e-02 -4.38598804e-02 -6.44885525e-02 -1.02285191e-01 +1.39353022e-01 +1.56594627e-02 +5.65521307e-02 -5.93081936e-02 +6.04702346e-02 +8.09634291e-03 -9.20813009e-02 -9.27675739e-02 +8.08829889e-02 +2.28878502e-02 -1.15478776e-01 +2.44572069e-02 +3.02742980e-02 -1.86720956e-02 -1.18354484e-02 -2.67428998e-02 +1.47361830e-01 -8.43199342e-02 +1.33352980e-01 -4.03990746e-02 -1.23002365e-01 -5.44126220e-02 -1.37874156e-01 -4.57803905e-02 +4.18639816e-02 +9.90245640e-02 +9.16493963e-03 +3.58472653e-02 +2.30843332e-02 -7.52557367e-02 -9.29935798e-02 +1.47932082e-01 +1.40153572e-01 +1.08564451e-01 +6.98171481e-02 +1.27278358e-01 -7.21100569e-02 -6.22186484e-03 -5.10949753e-02 +5.03274649e-02 +3.55485491e-02 +1.27871916e-01 +1.42062583e-03 +2.76481826e-02 +9.20920745e-02 +5.13007268e-02 +5.35468012e-02 +1.04610756e-01 +1.24233119e-01 +1.49034902e-01 +1.45206288e-01 -7.12522045e-02 -1.12427928e-01 +1.28574111e-02 +1.27483964e-01 +8.94838274e-02 +3.52998748e-02 +1.29656270e-01 +2.11620294e-02 +1.11892791e-02 +3.95105109e-02 -8.17432404e-02 +6.93855062e-03 -1.27586558e-01 +2.26599462e-02 +2.87864469e-02 -4.00325507e-02 +1.03544667e-01 +8.54714438e-02 +1.08832963e-01 +3.23448963e-02 -7.51396194e-02 -2.08824873e-02 +9.75767449e-02 +4.42883596e-02 +2.97934152e-02 -7.01764375e-02 +1.09701008e-02 -4.82782833e-02 -6.53105453e-02 -1.15982769e-02 +9.51936170e-02 -1.34425526e-02 +1.22963749e-01 +1.17008075e-01 -1.34458914e-01 +1.23517737e-01 +7.13228509e-02 +1.09320074e-01 -8.13856944e-02 -1.34372577e-01 +8.81854594e-02 +1.25928670e-01 +1.06950745e-01 -5.35164699e-02 +9.12127867e-02 +1.05123257e-03 +7.53689483e-02 +3.40614393e-02 +1.22800730e-01 +5.14125153e-02 +6.15498200e-02 -3.38283964e-02 +1.07312672e-01 +1.19063251e-01 +8.74965861e-02 +2.98159551e-02 -9.91996527e-02 +7.65307024e-02 +1.42610729e-01 +1.09182596e-02 +1.54860541e-01 -6.23747297e-02 -7.50882551e-02 +9.69249159e-02 -9.61052924e-02 -9.76042747e-02 -2.90209707e-02 +1.81388557e-02 -1.13366708e-01 -1.22811710e-02 -8.32744464e-02 -5.10263117e-03 -3.39113325e-02 +5.01154875e-03 +7.44048730e-02 +9.89050418e-02 -8.33905116e-03 -9.64845717e-02 +5.14374301e-02 +7.21063167e-02 -9.08141732e-02 +3.37697789e-02 +1.50685087e-02 +8.06432590e-02 +8.13919604e-02 +9.92308483e-02 +1.52664250e-02 +7.84241259e-02 -2.41140705e-02 -7.49540925e-02 -4.78769764e-02 -2.83668824e-02 -4.90001179e-02 +1.09401345e-01 -2.99992459e-03 -6.56017363e-02 -1.07969619e-01 +1.00317672e-01 +2.67057884e-02 +1.86846592e-02 +6.88576326e-02 +1.65070906e-01 -7.74879300e-04 +9.06904191e-02 -8.77516810e-03 +4.96511944e-02 -2.13721622e-04 -1.09536231e-01 -4.13240604e-02 -8.25412944e-02 +1.31109849e-01 +2.27699317e-02 -1.52390609e-02 +6.89191297e-02 -1.41902849e-01 -5.80879599e-02 +6.93760365e-02 -3.19792256e-02 -1.07303075e-01 -9.64484587e-02 -6.85627237e-02 -1.30439103e-01 -6.03273176e-02 -5.30414246e-02 +9.93614271e-02 +8.24319273e-02 +6.66152090e-02 -8.62377584e-02 +1.21119775e-01 -3.28411572e-02 -6.89212680e-02 -9.62257385e-03 -7.88835213e-02 -1.29705176e-01 -7.65584558e-02 -1.00332722e-01 -8.57353806e-02 -1.36064757e-02 -8.07500631e-02 +1.45065738e-02 +4.32319790e-02 -2.38493476e-02 +3.53942662e-02 +1.10109352e-01 -5.71658164e-02 -1.22826114e-01 -1.05723285e-03 -7.76553601e-02 -2.82071996e-02 +4.60969284e-02 +7.46901333e-02 +4.78865430e-02 -9.04112011e-02 -6.42552152e-02 -1.09057955e-01 -1.08167052e-01 +1.27577454e-01 -4.76888269e-02 -6.70567504e-04 +1.98007803e-02 -9.47447941e-02 +6.68836460e-02 +3.33442278e-02 +2.95853429e-02 -7.76759759e-02 +7.31416559e-03 +5.92834279e-02 -8.71264413e-02 +1.25383869e-01 -2.87666228e-02 +5.60406558e-02 +5.10860570e-02 -7.41165876e-02 -2.58723963e-02 -1.21776508e-02 -4.08144630e-02 +1.47573665e-01 -1.65689532e-02 +6.70576543e-02 +2.12311316e-02 +9.35394019e-02 -8.91827643e-02 -9.81059819e-02 +1.02715202e-01 +1.34123951e-01 +9.83803868e-02 +1.41259715e-01 -6.16014488e-02 +2.55003646e-02 -4.40142862e-02 +6.71913698e-02 +1.74199808e-02 +6.33029044e-02 +1.16049796e-01 +9.92089435e-02 +1.18994907e-01 -7.84678534e-02 -8.21721032e-02 +4.42198031e-02 -1.32364864e-02 -1.05213761e-01 -9.16630924e-02 +4.12325785e-02 +2.92834379e-02 +1.32772056e-02 +5.90556785e-02 -8.77605826e-02 +7.58379474e-02 +8.44343901e-02 -9.09307674e-02 -7.40747079e-02 -1.04721151e-02 +1.43903457e-02 -1.04027279e-01 +2.73479372e-02 -1.01976447e-01 -3.53345973e-03 -1.02979429e-01 +9.80781391e-02 +2.34757662e-02 -7.46410266e-02 -6.84934705e-02 +1.16206080e-01 -2.50167307e-02 +3.06312274e-02 -4.88875853e-03 +1.00795165e-01 -5.35470694e-02 -1.04635898e-02 -7.43124783e-02 -2.73289829e-02 -3.22734043e-02 -4.24686186e-02 -1.29309043e-01 +3.89935412e-02 +1.44765988e-01 -1.12606129e-02 +7.00173900e-02 -1.32440031e-01 +1.39837831e-01 +2.45299060e-02 +6.10748231e-02 -1.22544780e-01 +8.13753158e-02 +3.06313075e-02 -4.14230451e-02 -1.62507277e-02 -1.14237070e-01 +1.16296254e-01 -1.64749045e-02 -5.25103435e-02 -2.31121099e-04 +8.59690756e-02 -9.34306681e-02 +3.62394974e-02 +7.82725494e-03 -1.19041234e-01 -8.11731890e-02 -7.14972392e-02 +4.25781272e-02 -8.51528272e-02 +6.61816299e-02 +1.38061807e-01 -1.58113204e-02 +1.41549528e-01 +1.54466368e-02 +1.03622206e-01 -5.92904277e-02 +1.11432150e-01 +9.74752307e-02 -5.74565679e-02 +7.51023069e-02 +1.17724054e-01 +8.39544460e-02 +8.66503343e-02 -5.16455658e-02 +9.97059513e-03 +1.18536036e-02 -7.29070082e-02 -4.56302129e-02 +7.06687719e-02 +3.29006836e-02 -1.17171826e-02 -5.60884401e-02 -1.77542176e-02 +7.15320706e-02 +1.36285499e-01 -1.16821274e-01 -2.50345934e-02 -2.01362334e-02 +7.49034807e-02 +3.07140369e-02 +2.99135130e-02 -3.38795222e-02 +1.00495972e-01 +6.71824142e-02 -5.98499142e-02 -8.32065865e-02 +7.54701346e-02 -8.41074064e-02 -1.07035846e-01 -9.36876088e-02 +3.68173942e-02 -4.07480784e-02 +1.27251714e-01 +1.86945628e-02 -7.86857679e-02 +1.22889459e-01 +5.31321317e-02 -4.51503396e-02 -1.33708805e-01 +1.26353979e-01 +8.19042102e-02 -1.82160828e-02 +3.41221467e-02 +5.54961562e-02 -9.81196389e-02 +1.45974532e-01 +4.15248759e-02 -7.25556985e-02 -1.29487008e-01 +5.75134857e-03 +1.82547290e-02 +1.06960520e-01 -9.39857182e-06 +2.29619499e-02 +7.73902833e-02 +7.60985538e-02 -5.69916889e-02 +1.02671236e-01 +9.13930908e-02 +1.37791842e-01 +1.06888674e-01 +1.04842529e-01 +1.21835694e-01 +8.77246633e-02 +2.00860426e-02 +5.32697067e-02 -1.26053825e-01 -9.43039730e-02 +5.85224554e-02 -1.10877477e-01 +2.49764752e-02 +6.91398084e-02 +7.40540633e-03 -3.26887630e-02 -2.24154210e-03 -3.92752215e-02 -5.03992066e-02 -2.69244015e-02 -1.25652939e-01 -4.65353541e-02 +7.39959031e-02 +1.31806523e-01 -7.15840012e-02 -4.70805876e-02 +2.43631122e-03 -2.51528826e-02 +5.02286330e-02 +5.13079278e-02 -7.05833957e-02 -5.60286678e-02 +1.26092061e-01 -2.15705000e-02 +4.42143567e-02 +7.70230815e-02 +6.32473221e-03 -8.19317698e-02 +1.33175403e-01 +2.73176422e-03 +1.20450087e-01 +8.53108093e-02 -1.14688398e-02 +6.85008839e-02 -2.88756168e-03 -9.28731710e-02 +1.26866981e-01 +8.15780461e-02 +1.23427451e-01 +7.79458284e-02 +1.16907477e-01 +6.03931211e-02 -3.74999046e-02 -1.22391835e-01 -1.06424890e-01 -9.33423731e-03 +1.25463516e-01 -1.33739159e-01 +5.35839498e-02 -5.26011698e-02 +9.86808445e-03 -4.36506420e-02 -9.12238508e-02 -4.13294025e-02 +1.27340034e-01 +1.22545222e-02 -8.61480236e-02 +1.99370887e-02 +1.28256172e-01 +9.28656906e-02 +1.27674326e-01 +1.06170192e-01 +1.06290042e-01 +1.40408529e-02 +1.01832472e-01 -1.18652232e-01 +2.55325772e-02 +5.17456159e-02 -9.09840390e-02 +1.40009359e-01 +7.25847408e-02 -9.62464288e-02 +7.04137385e-02 +9.37562361e-02 -3.59156467e-02 -9.96847972e-02 -5.34302928e-02 -8.01665187e-02 -4.09473889e-02 +5.60047571e-03 +9.10208095e-03 +1.05504030e-02 -3.53934951e-02 +1.04554176e-01 -4.27835584e-02 -4.74618375e-03 -9.90308821e-02 +1.09690532e-01 -3.66059132e-02 +1.01487949e-01 +4.49428782e-02 +3.68429795e-02 +2.38749627e-02 -1.05476908e-01 -8.43799189e-02 +7.09082782e-02 -2.20607407e-02 -3.48239876e-02 -1.75071079e-02 +6.38125166e-02 +7.01996833e-02 -9.59540382e-02 -5.25330864e-02 -5.99451885e-02 +1.16738873e-02 +1.20627731e-01 +8.11956748e-02 -6.51282221e-02 -4.99129556e-02 +1.21365953e-02 -1.89507678e-02 +4.51385938e-02 -8.02090764e-02 -1.75044837e-03 -1.29578248e-01 +1.19191013e-01 -5.09463474e-02 +7.41759967e-03 -7.06063807e-02 +1.14795350e-01 +1.27076153e-02 +4.80545349e-02 +1.53985947e-01 +1.71185695e-02 -1.09449714e-01 -1.13965802e-01 +1.20931216e-01 +1.37908399e-01 -3.30040641e-02 -1.65309869e-02 +1.30918156e-02 +2.02858895e-02 -7.98518881e-02 -1.78089493e-03 +6.76144361e-02 +1.03766739e-01 -2.46911962e-03 +4.44853818e-03 -8.85394961e-02 -1.15425408e-01 +7.47809466e-03 -7.55518302e-02 +4.73374724e-02 -1.23191200e-01 +3.07638720e-02 +1.49239585e-01 +3.03417630e-03 -9.82633233e-02 -4.90771048e-02 +1.86361596e-02 +5.05528189e-02 -3.97013836e-02 +7.62687549e-02 +1.23796821e-01 +8.97703394e-02 -7.35856891e-02 -4.10278328e-02 +1.05343200e-01 +4.76841703e-02 -1.85855068e-02 +8.25280249e-02 +9.96728987e-02 +1.01051688e-01 +6.09007105e-02 +1.07588530e-01 -2.52978923e-03 -9.34872329e-02 +7.65034407e-02 -1.75700374e-02 +5.99047840e-02 +5.87422587e-02 -1.02648058e-03 +6.87764063e-02 +5.17991222e-02 -1.08625516e-01 +1.52396739e-01 +1.29831761e-01 -2.33450020e-03 -4.77496497e-02 -2.59942021e-02 +1.87389851e-02 -7.67010897e-02 +3.86543758e-02 -1.16394170e-01 -7.73178041e-02 +9.36373845e-02 -1.05464503e-01 -2.04995964e-02 +6.51558954e-03 +6.78342953e-03 +1.13778219e-01 -1.03340618e-01 -3.08666527e-02 +9.92169976e-03 +1.55425742e-01 +4.77870926e-02 +1.18343219e-01 +8.56719613e-02 -6.47600666e-02 -7.96537772e-02 -1.52629539e-02 -7.92914256e-02 +9.99438167e-02 -3.41296569e-02 -1.03024335e-03 +4.99236919e-02 -1.28335074e-01 -6.16890416e-02 -2.89004911e-02 -6.01574294e-02 +5.77712767e-02 +8.07862058e-02 +6.74344599e-02 -1.05439648e-01 -1.12012409e-01 -1.25236548e-02 -1.05163343e-02 -7.84418881e-02 +7.76707754e-02 +2.04320084e-02 -7.97665045e-02 +1.29684448e-01 -9.47394595e-02 +8.74374062e-02 -1.39856130e-01 +1.05920948e-01 -7.71651343e-02 -9.36215445e-02 +8.97222534e-02 -9.71654505e-02 -1.47852138e-01 +9.34384242e-02 +3.75606418e-02 +4.88780104e-02 -8.39249641e-02 +9.62165277e-03 +4.13579866e-02 -1.00103095e-01 -8.26256350e-02 +3.83386388e-02 -3.48533168e-02 -1.92429665e-02 +7.15474272e-03 -6.20583780e-02 +1.43610895e-01 -1.51438033e-02 -5.42636663e-02 -1.06458850e-01 -9.47673246e-02 -4.96526100e-02 -9.49612781e-02 -3.32922265e-02 -1.35793805e-01 -7.63849588e-03 -1.24633931e-01 +4.50976472e-03 -2.83561032e-02 +1.18562967e-01 -1.26509786e-01 -2.67528426e-02 +2.00285688e-02 +4.88084517e-02 +5.29010780e-02 +1.36931896e-01 +1.45887330e-01 +3.27509232e-02 -5.84527291e-02 +7.80600309e-02 +1.26997977e-01 -5.40973842e-02 +1.58342779e-01 +5.53290434e-02 -9.22588333e-02 -7.34881163e-02 +6.21082745e-02 +6.67197024e-03 +6.90506473e-02 -8.27056617e-02 -1.17123112e-01 -1.26244038e-01 +1.44574959e-02 -2.88163852e-02 -1.28223971e-01 -1.12585440e-01 -2.18772348e-02 +1.06470741e-01 +1.97785795e-02 -2.74185877e-04 +5.04503250e-02 -5.49864024e-02 +6.83957413e-02 -9.03050229e-02 +1.51137173e-01 -7.02518225e-02 +1.05750613e-01 +1.02943294e-02 -1.60294145e-01 -1.36026181e-02 -6.39369860e-02 +2.14316007e-02 +4.92018536e-02 +2.22256705e-02 -1.21990092e-01 +7.20447600e-02 +4.44114543e-02 +1.10169068e-01 +9.54723135e-02 +1.07067041e-01 +2.32626200e-02 -1.91768538e-02 -1.02180816e-01 -5.80174662e-02 -1.12904251e-01 -1.15385093e-01 -3.08671091e-02 +5.12547866e-02 -3.59733626e-02 -5.12068681e-02 +4.24958430e-02 -3.74067458e-03 +6.60863221e-02 +5.39759956e-02 +1.35784343e-01 +4.61538807e-02 +1.18606672e-01 -6.12193383e-02 -5.86547935e-03 +1.30364046e-01 -3.61872241e-02 -1.38680533e-01 -7.81248137e-02 -7.89351910e-02 +3.21574025e-02 +3.08262929e-03 +1.33843645e-01 -1.32330939e-01 -8.32100809e-02 -2.50805281e-02 +1.11908413e-01 -2.44268272e-02 -1.05118319e-01 +5.96571639e-02 +2.68817656e-02 -1.95825715e-02 -2.37299576e-02 +1.36740491e-01 +8.84043351e-02 -1.16177954e-01 +3.25459018e-02 +2.42629088e-03 +8.58290680e-03 +1.03154577e-01 -4.33299951e-02 -9.02484283e-02 +9.06109288e-02 -1.16941355e-01 +1.30801484e-01 -8.86174291e-02 +6.34002462e-02 -1.35587007e-01 +2.79992577e-02 -1.16333671e-01 +5.29505461e-02 -4.06096913e-02 +8.36952776e-02 +5.85664324e-02 -1.16152063e-01 -6.94449767e-02 -5.55314124e-02 -2.02900283e-02 +7.11423829e-02 +4.72416803e-02 -7.42471218e-02 -8.85453746e-02 +4.95972559e-02 +1.30220965e-01 -3.20578367e-02 -1.13301963e-01 -1.14053383e-01 -3.17072086e-02 -5.77671118e-02 -5.27694188e-02 +3.05409804e-02 +4.93069366e-02 -8.58069584e-02 -2.73545552e-03 +9.27369595e-02 +8.37240517e-02 +1.16456717e-01 +7.26037025e-02 -5.34977429e-02 +6.98358715e-02 +1.01219825e-01 +1.28429476e-02 +4.10875343e-02 +1.07454725e-01 +5.90238608e-02 -8.24357495e-02 -1.11759901e-01 +1.01004533e-01 +5.99895678e-02 -7.74912983e-02 +5.04809655e-02 -8.99189785e-02 -8.21769387e-02 -1.06768526e-01 -2.82126460e-02 -2.62301154e-02 +1.02001697e-01 +6.21221848e-02 -1.24533856e-02 -1.15951203e-01 +1.08875535e-01 -2.73133889e-02 +1.25948787e-01 +8.70623514e-02 +1.16725259e-01 -6.37764409e-02 +3.88317518e-02 +1.09793574e-01 +1.00772329e-01 -5.49157932e-02 +6.89510629e-02 -3.12674120e-02 +2.56514531e-02 -4.79446212e-03 -5.79499081e-02 -6.95277080e-02 -3.38010639e-02 +8.34128121e-04 -1.00510851e-01 +7.92247579e-02 +2.12701019e-02 -7.02978671e-02 +7.90414773e-03 -6.74571544e-02 -5.07307462e-02 +1.30537346e-01 +4.71589081e-02 -2.56541111e-02 +8.06411728e-02 -1.07343551e-02 +1.24550693e-01 +1.21837035e-01 +1.11860581e-01 -7.50756711e-02 -2.89439783e-02 -8.55234936e-02 +5.66381700e-02 +1.29534736e-01 +3.00652664e-02 -3.87917496e-02 +1.26688391e-01 +1.09483600e-02 +7.72814974e-02 -1.28077298e-01 -8.61440599e-02 -5.82067762e-03 -8.83236527e-02 +3.85815762e-02 -8.59306082e-02 +6.86395019e-02 -7.87569880e-02 +3.55685945e-03 +2.63297409e-02 -5.44359647e-02 +1.12654129e-02 +1.12117812e-01 +2.90829260e-02 +1.01249274e-02 +3.87532189e-02 -1.00253850e-01 -7.25127244e-03 -5.62492982e-02 -4.46977355e-02 +9.98164639e-02 -7.61721954e-02 +8.76475200e-02 +2.04021130e-02 +8.43004584e-02 +7.16366768e-02 +7.55885094e-02 +8.07743613e-03 +1.23870701e-01 -1.79251991e-02 +1.22239187e-01 +5.73772937e-02 +8.80921632e-02 +8.38317946e-02 -1.16250375e-02 -4.34954390e-02 +6.34569600e-02 +3.89813930e-02 -6.38171841e-05 -1.07220136e-01 +1.30093843e-01 +4.76724170e-02 +9.85671431e-02 +4.20836285e-02 -5.05989976e-02 +9.82405022e-02 -5.65632954e-02 -6.51271790e-02 +1.07701875e-01 +8.71286243e-02 +4.61883843e-02 +6.88419417e-02 -9.76856574e-02 +3.90429161e-02 +1.50255552e-02 -4.92145214e-03 -1.07953744e-02 -9.56883430e-02 +1.07060447e-01 +9.41316560e-02 +7.07041770e-02 -9.27211046e-02 +7.54962638e-02 -1.72172803e-02 -8.27554390e-02 -1.20971069e-01 +1.15455138e-02 +8.66015404e-02 -1.15744174e-02 +1.12306729e-01 -1.02502942e-01 +8.30109417e-02 +5.03878035e-02 +1.17589444e-01 +6.71394169e-02 -7.13592991e-02 -8.71080607e-02 -1.03871785e-01 +1.03721470e-01 +5.94424494e-02 -6.10251017e-02 -1.02952421e-01 -1.25141263e-01 -8.21575709e-03 -4.87910770e-02 -3.90307419e-02 -5.43199778e-02 +3.06993555e-02 -1.35002941e-01 -2.92404816e-02 +8.21251720e-02 -5.29891849e-02 -9.07162130e-02 +2.77972519e-02 +2.22162381e-02 +6.10946193e-02 -1.56171573e-02 +1.08417802e-01 +1.22416265e-01 +1.07721128e-01 -5.72456606e-02 -5.52297160e-02 +8.46587718e-02 -6.48345500e-02 +6.21959530e-02 -9.31228250e-02 -6.73834002e-04 -1.08323909e-01 +2.56481022e-02 +2.49869600e-02 +1.23040505e-01 +5.28838821e-02 +9.19557661e-02 +1.42938405e-01 +5.99181242e-02 -3.85507010e-02 -1.09096393e-01 -3.89056243e-02 -1.47135798e-02 +7.91831836e-02 -1.30378790e-02 +7.57173374e-02 +9.23398435e-02 -4.37675789e-02 +1.14270091e-01 +5.94232380e-02 +1.25863612e-01 -1.39507994e-01 -9.52759534e-02 +8.44381079e-02 +5.75637855e-02 -4.24759164e-02 +1.15189381e-01 -3.12379189e-02 -4.56817821e-02 -1.13848798e-01 -7.22259805e-02 -6.94038868e-02 +1.58001408e-01 +8.76714066e-02 -7.82879516e-02 -1.05856813e-01 +1.33822680e-01 +1.02170132e-01 +1.26258343e-01 -1.26818165e-01 +5.91526031e-02 -1.05707971e-02 -2.46603228e-02 -2.76045892e-02 -8.62028003e-02 -2.70650126e-02 -1.20203571e-04 +6.70082793e-02 +3.11818700e-02 -1.05403535e-01 -3.75029221e-02 -5.22162765e-02 -4.27488349e-02 -2.64843740e-02 -6.39961809e-02 +1.30519941e-01 -7.98492134e-03 +1.20279133e-01 +5.27869724e-02 -1.49818473e-02 +8.30344036e-02 +8.83390531e-02 +7.93958753e-02 +1.22549631e-01 -5.98316416e-02 -5.53761907e-02 +8.15483779e-02 +1.11316130e-01 +5.01077734e-02 -2.63795108e-02 -6.15279451e-02 -1.44130677e-01 +1.83999334e-02 +8.84428248e-02 +1.39751285e-01 -2.39001811e-02 +1.10948816e-01 -2.88578612e-03 -7.65679479e-02 +3.62090953e-02 -5.66573963e-02 +1.19258545e-01 -5.83922118e-03 +3.88504937e-02 +8.88387412e-02 -6.99491724e-02 +5.80744743e-02 -1.11377195e-01 -3.16660479e-03 +1.29950702e-01 +7.03629181e-02 +9.32467356e-02 +7.28406161e-02 +6.64839000e-02 -6.52923761e-03 +1.30105555e-01 +9.78447422e-02 +3.20681408e-02 +7.71749616e-02 +7.07100108e-02 -1.34006470e-01 -2.35588308e-02 +1.17277309e-01 +1.27162740e-01 +1.43303489e-02 +1.80669986e-02 +2.76819281e-02 +1.13698937e-01 +1.18945897e-01 -1.26605511e-01 -1.08117700e-01 +9.78408530e-02 -1.95399378e-04 -4.44699712e-02 +1.12331904e-01 -9.64711085e-02 -1.27695929e-02 -1.10795900e-01 +7.39275515e-02 +1.12701572e-01 -7.05070747e-03 +3.14089283e-02 -2.62215640e-02 -1.25997975e-01 -5.58352545e-02 +6.98321760e-02 -4.35786741e-03 -1.23749830e-01 -9.63744670e-02 +4.70403694e-02 -5.81877120e-02 -9.97646227e-02 -4.83495882e-03 +1.19599313e-01 +1.00987861e-02 -2.31073182e-02 -4.82261553e-02 +9.50311720e-02 -6.98578432e-02 +6.72178194e-02 +1.22685015e-01 +1.79084353e-02 -1.26067325e-01 +1.29944935e-01 -7.35943392e-02 -7.75802657e-02 -1.02994993e-01 +9.92579460e-02 -2.16442831e-02 -7.40279034e-02 +1.32764280e-01 -3.44940163e-02 +3.30756716e-02 -1.26849726e-01 -1.01769216e-01 -7.67176226e-02 +1.14523508e-01 +1.11425139e-01 -6.54832721e-02 -9.03874388e-05 +3.04020420e-02 -1.35366723e-01 -1.09355137e-01 +1.21011138e-01 +2.72448640e-02 +6.08386770e-02 -6.29559830e-02 -4.28612903e-02 -2.85424255e-02 +9.75476801e-02 +6.60388693e-02 +1.16096035e-01 -1.25614092e-01 -1.78181659e-02 +1.32370695e-01 -3.70876566e-02 +7.95441270e-02 +1.26190498e-01 -2.09641010e-02 +7.60869775e-03 +1.69733074e-02 -3.07116974e-02 +3.46789248e-02 -9.11805108e-02 -4.31690998e-02 -1.24850243e-01 -4.37577814e-02 -1.05249658e-01 -8.46814066e-02 -6.72714338e-02 +1.46593407e-01 +2.66041309e-02 -9.32044089e-02 +5.50569547e-03 +1.50298387e-01 +4.29736543e-03 +3.08023393e-02 -5.10536693e-02 -4.36905995e-02 +1.41837984e-01 +5.00934795e-02 +9.48579758e-02 -1.52481298e-04 -8.03797767e-02 +1.31185753e-02 -5.87153956e-02 -1.01173252e-01 +3.67595628e-02 -7.31224790e-02 -1.15756102e-01 -5.41231334e-02 +9.89472941e-02 -1.62767507e-02 +1.20953083e-01 -2.67019290e-02 -2.13444717e-02 -1.20290652e-01 -5.17347939e-02 +3.06369103e-02 -1.10744145e-02 +7.63770714e-02 +1.16744086e-01 +1.11727072e-02 -4.07215133e-02 -7.39427432e-02 -8.20510183e-03 +3.58904675e-02 -8.69401246e-02 +1.41017050e-01 +5.29847518e-02 -1.74744241e-02 +6.23771995e-02 +8.29457566e-02 +1.27043903e-01 +2.59600338e-02 +3.97439711e-02 +1.14118524e-01 -3.38689089e-02 -1.13756418e-01 +5.86007945e-02 -8.09164271e-02 +2.55017113e-02 +1.29732013e-01 -8.35525617e-02 +1.57340050e-01 -9.76846293e-02 +1.74101442e-02 -1.06916435e-01 +4.81947651e-03 +5.15406467e-02 +1.18260458e-01 -1.47086075e-02 -8.86755884e-02 +9.50684175e-02 -1.19996578e-01 -6.19605519e-02 -7.05374926e-02 +7.00188130e-02 +7.13506043e-02 -1.32828921e-01 +1.39467314e-01 -3.92497331e-02 -1.13507554e-01 +8.12584385e-02 +1.01544358e-01 -5.94685711e-02 +1.25784770e-01 +7.62909511e-03 +9.03123841e-02 +3.24149728e-02 -6.62328035e-04 +1.91370752e-02 -9.26218703e-02 -9.60693359e-02 +3.72976325e-02 -1.20331556e-01 +5.57059683e-02 -1.08158223e-01 -8.62114802e-02 -9.29588154e-02 +6.25550300e-02 +4.86175306e-02 -5.89362308e-02 +1.02190502e-01 -1.10557385e-01 -5.53407110e-02 +9.98482108e-02 +3.51213547e-03 -1.38911679e-01 -4.04095575e-02 -8.08734149e-02 -1.19337715e-01 +1.38167426e-01 +1.07187837e-01 -1.12144109e-02 +6.65285736e-02 -9.89678353e-02 +1.29488349e-01 +5.43041527e-03 -5.65730035e-02 -2.09320188e-02 -4.16158959e-02 -2.60377806e-02 -4.13592644e-02 +3.43901850e-02 +6.16858713e-02 +6.24525398e-02 +4.70914356e-02 +1.17176875e-01 -5.55990972e-02 +1.05317459e-01 -3.40078212e-02 +9.92273390e-02 -1.18261456e-01 -6.51960820e-02 +1.03096463e-01 +1.73180979e-02 -1.91732950e-03 -2.02788878e-02 -9.97188911e-02 -8.09642449e-02 +2.11069398e-02 -4.55881469e-02 -6.26931041e-02 +1.35429546e-01 -9.63954255e-02 +1.08045544e-02 +4.33889255e-02 +7.22177476e-02 +9.45566595e-03 -3.33385319e-02 -7.44954348e-02 +1.14442214e-01 +1.09773621e-01 -3.48508395e-02 -5.06044105e-02 +7.11097792e-02 -1.37812898e-01 +5.53132109e-02 +5.78223132e-02 -9.35002416e-03 +8.16396251e-02 +1.15613095e-01 +3.00803427e-02 -6.21284954e-02 -3.11716516e-02 +4.91987653e-02 -4.31867465e-02 +1.23353444e-01 -8.48132446e-02 -4.34714481e-02 +5.27813770e-02 -1.48063645e-01 -4.54598665e-02 -2.58095004e-02 -1.01000980e-01 +1.47041082e-01 -5.98770939e-02 -3.25089693e-02 +7.18995035e-02 -1.10694245e-01 +7.26730749e-02 -1.01200446e-01 +6.31427616e-02 -3.61554585e-02 -6.78666234e-02 +6.14250526e-02 -3.24578956e-02 +4.68711965e-02 +1.17297471e-02 -8.36901888e-02 +8.16002861e-02 +1.15644984e-01 +1.59005839e-02 +1.17492631e-01 +1.15193702e-01 -1.02226250e-01 +1.90782081e-02 +6.15469739e-02 +1.28373355e-01 +3.25717367e-02 +1.13663919e-01 -9.98499691e-02 +6.20290004e-02 +9.82001722e-02 +5.76731339e-02 +3.13925594e-02 -4.41834293e-02 -9.98900011e-02 +8.06507915e-02 -2.73778811e-02 +2.36977134e-02 -1.08777650e-01 +1.56726204e-02 -6.26601800e-02 -3.07300966e-02 -4.02154960e-03 -5.92929199e-02 -1.43910885e-01 -8.58984143e-02 +7.09272772e-02 +1.05242625e-01 -1.06856175e-01 +3.69472653e-02 +8.62439871e-02 -6.03844002e-02 -1.15721770e-01 -3.76672298e-02 -1.19687602e-01 -1.55063391e-01 -1.03327632e-01 +6.28053695e-02 -1.00606211e-01 +7.25194886e-02 -4.30084728e-02 +7.72754550e-02 +9.47142914e-02 -5.65845370e-02 -6.36546612e-02 -4.87312442e-03 -2.48779412e-02 +7.26877525e-02 +2.34940499e-02 +1.33721098e-01 +2.25288887e-02 +1.10966958e-01 -1.23951152e-01 -1.04131019e-02 -2.83655785e-02 -6.34976327e-02 -5.28866015e-02 +7.34869540e-02 -8.78270790e-02 -1.05280176e-01 -3.17727998e-02 -3.37301306e-02 -4.36308235e-02 +4.54290807e-02 -2.23074183e-02 -1.03937171e-01 +1.43476412e-01 -2.38071177e-02 +1.19435459e-01 +5.26832156e-02 +8.21304768e-02 -1.67173788e-01 +1.07567966e-01 +6.56500757e-02 -1.23950310e-01 -1.83575563e-02 +2.43449137e-02 +1.40809000e-01 -9.15186256e-02 -9.66071039e-02 +1.10033348e-01 -1.38504833e-01 -1.10432774e-01 +1.09934537e-02 -3.74010205e-02 -2.96012424e-02 +7.09774569e-02 -8.99343044e-02 -9.16555673e-02 -6.32528961e-02 -4.49790759e-03 -3.59461345e-02 -5.94482236e-02 -3.19480114e-02 -1.20409317e-01 -1.00482769e-01 -1.16797052e-01 +1.38020504e-03 -1.76654104e-02 +9.41095352e-02 +2.64847595e-02 -6.29413575e-02 -7.81778619e-02 -6.79043084e-02 +1.27655178e-01 +5.44060841e-02 -7.37569034e-02 -1.19818419e-01 -1.05859168e-01 +5.63905924e-04 -1.32937372e-01 -2.66036461e-03 +9.76931155e-02 +5.83108999e-02 -6.38201535e-02 -1.44814968e-01 +2.61959657e-02 -1.40084147e-01 -2.90719066e-02 -1.07013196e-01 +9.55123082e-02 -1.10773988e-01 -2.89495252e-02 +1.61933191e-02 -9.33456607e-03 +6.85476363e-02 +4.52814400e-02 -1.39247335e-03 -1.13177992e-01 -1.23866104e-01 +1.21440820e-01 -7.09876046e-02 +7.11089894e-02 +8.74198750e-02 -8.10084566e-02 -1.45874947e-01 +2.04409435e-02 -2.25543864e-02 +5.74640892e-02 -3.67221460e-02 -1.01587892e-01 -1.27706314e-02 -4.63406146e-02 -1.68667489e-03 -1.11018829e-01 +1.05576925e-01 +8.00815132e-03 +3.51850130e-02 +1.50378821e-02 -1.77024920e-02 +1.12047777e-01 +7.54334703e-02 -5.97468466e-02 -7.76818246e-02 -1.16025932e-01 -1.88943688e-02 +1.04813889e-01 -8.47965628e-02 +8.80126581e-02 +2.55872440e-02 -7.05967620e-02 -1.01050474e-01 +7.26805180e-02 +9.08170268e-03 +9.72139370e-03 -8.13131779e-02 -3.57519314e-02 -1.08924583e-01 +1.24921054e-01 +5.59169240e-02 -9.66588110e-02 -7.82136768e-02 +1.16793334e-01 +5.36874570e-02 -4.15280201e-02 +1.09451681e-01 +8.04282874e-02 -8.33095089e-02 +6.86004311e-02 -8.32719654e-02 +2.31292974e-02 +8.31852034e-02 -2.99829785e-02 -1.27150461e-01 -4.55316417e-02 -8.26324821e-02 -1.02580033e-01 +6.12197071e-02 +3.06813587e-02 -5.75438589e-02 +5.82134053e-02 +9.56880450e-02 +3.47751305e-02 -1.34332716e-01 +1.30701765e-01 +6.59613013e-02 +1.18339762e-01 -7.57617578e-02 +7.93943405e-02 -1.18373923e-01 -2.78593041e-03 -5.16780019e-02 -7.64936283e-02 +6.33766456e-03 +1.05698369e-02 -7.10058287e-02 -1.38953999e-01 -1.15274481e-01 +6.46931455e-02 -1.19826242e-01 -6.42190725e-02 -4.75598266e-03 +3.25709209e-02 -6.13601543e-02 -1.16154216e-01 -1.10375479e-01 +4.99104746e-02 +9.43618119e-02 +1.09123275e-01 -9.47460532e-02 -1.37456879e-01 -1.13980263e-01 -5.82114328e-03 -3.45472395e-02 +6.65164441e-02 -2.28067152e-02 +1.16139613e-01 +9.10138786e-02 +1.22707267e-03 -1.16983570e-01 -1.07828584e-02 +2.62122899e-02 -5.87615296e-02 +4.07231823e-02 +9.13191289e-02 +1.17708772e-01 +1.19907729e-01 -2.99963262e-02 -2.59585958e-03 -5.66507457e-03 +7.45128095e-02 -8.26584175e-02 -8.77797231e-02 +1.25492498e-01 +1.15268975e-01 -2.22969502e-02 +1.36715351e-02 -2.88633108e-02 -8.93099532e-02 -8.07341337e-02 +6.24633320e-02 -6.00679591e-03 +2.85537019e-02 -1.06781637e-02 -2.27241088e-02 -3.98428459e-03 -3.50901834e-03 +9.45274532e-02 +8.88820589e-02 -1.53443776e-02 +8.77088755e-02 -1.14291802e-01 -5.66456877e-02 -7.40986466e-02 +3.16617675e-02 -1.02256365e-01 -1.15353644e-01 -1.48336098e-01 -1.31478250e-01 +9.36566442e-02 -3.04506496e-02 -1.12959825e-01 +6.61619008e-02 -9.80716869e-02 -5.10700904e-02 +1.20767593e-01 -1.38604060e-01 +1.37353271e-01 -8.55206996e-02 -5.11183143e-02 -1.96859743e-02 +2.55377460e-02 -1.29619256e-01 -4.20090891e-02 +1.56595316e-02 +7.76675716e-02 +2.95670447e-03 +9.98579785e-02 +1.18975274e-01 -5.71006984e-02 +1.80435344e-03 +8.41373950e-02 -4.67304587e-02 -1.04838438e-01 +7.61251524e-02 +8.20898712e-02 -1.15924060e-01 +1.44258048e-02 -1.27814606e-01 -6.25833124e-02 -4.53364477e-02 +9.19893309e-02 -5.26420325e-02 +4.30134498e-02 +1.33009300e-01 -1.15483724e-01 +6.04453646e-02 -6.81615472e-02 -6.04545437e-02 +4.23540622e-02 +8.53369161e-02 +1.03760593e-01 +9.14893486e-03 +9.31003541e-02 +3.72096449e-02 +1.30673945e-01 -1.02843367e-01 -1.02930926e-01 -9.42127183e-02 -1.25602484e-01 -8.68398696e-02 +5.75261936e-02 +4.22529224e-03 +7.63154924e-02 +2.88821887e-02 -4.10007685e-02 +7.64325932e-02 -1.46066457e-01 +1.98956649e-03 -4.63407785e-02 -1.44792020e-01 +1.22950889e-01 -1.26785159e-01 -1.30291078e-02 -1.89967509e-02 -1.24345966e-01 -2.16099508e-02 +2.95023136e-02 -7.76344091e-02 +9.29590538e-02 +1.34657025e-01 -4.93840724e-02 -3.61579061e-02 +1.15546323e-01 +1.12111419e-01 -3.46199758e-02 -9.98190953e-04 -1.11033656e-01 -1.51184857e-01 +1.04610264e-01 -1.01410435e-03 -1.02825709e-01 +1.22524329e-01 -6.66912878e-03 +6.40789196e-02 +3.23352925e-02 +1.70160830e-02 -7.33258277e-02 -8.82618800e-02 -9.13194492e-02 +1.59157157e-01 +3.81122716e-02 +9.32817161e-02 -2.13165712e-02 +1.21640459e-01 -2.54357327e-02 -3.59177403e-02 +1.07021682e-01 -1.15803026e-01 +4.43547480e-02 -5.21285739e-03 +9.97859165e-02 -8.62925649e-02 -9.02463570e-02 -1.08043060e-01 +1.18044868e-01 -1.01086549e-01 +5.58945388e-02 -5.20882383e-03 -4.11137799e-03 +6.84934144e-04 +3.08346972e-02 -8.15710723e-02 -5.38880154e-02 -5.69466427e-02 +1.48494076e-02 +9.59889069e-02 +1.18417427e-01 -7.08638802e-02 -5.87312318e-02 +8.37503746e-02 -9.62394029e-02 -9.06706005e-02 -8.04978609e-02 -8.71681124e-02 -6.41984493e-02 +6.24266639e-02 +1.24824733e-01 -1.01708630e-02 +4.74963002e-02 -1.43472776e-01 +3.23552340e-02 +4.07325551e-02 -9.55559090e-02 +1.58106927e-02 -8.45766962e-02 +6.76467046e-02 -4.44334485e-02 +8.55525509e-02 -3.43345525e-03 +2.57443432e-02 -2.47962587e-02 +5.63962534e-02 +9.07618552e-03 -1.35523896e-03 -5.54435477e-02 -6.32481948e-02 -8.00517276e-02 +3.20233479e-02 -2.47620381e-02 -1.18556313e-01 -9.71506238e-02 +5.14601916e-02 +1.21718161e-01 -3.23378965e-02 +2.23378874e-02 +1.33586586e-01 -3.75049114e-02 -3.75464372e-02 -1.05452769e-01 -8.31978843e-02 -3.78646664e-02 -1.39869407e-01 -4.06127470e-03 -1.46331545e-02 -3.39706726e-02 -1.10226393e-01 -8.92247334e-02 +2.03888994e-02 -5.25978468e-02 +7.33944625e-02 +6.44640923e-02 +1.33177489e-01 +8.18711072e-02 -6.78295875e-03 -1.12419881e-01 +6.69973344e-02 +1.30294859e-01 -8.75708163e-02 +8.71986523e-02 +1.09264277e-01 -3.68021280e-02 +1.33068070e-01 -4.25910614e-02 -1.27206951e-01 -8.41062889e-02 +1.88048522e-03 +2.65794224e-03 -9.02381837e-02 -1.03007466e-01 +9.99942571e-02 +2.85309367e-02 +1.27409011e-01 -1.23674899e-01 -4.73307772e-03 +1.30460858e-01 +8.26631561e-02 +9.51874331e-02 +3.50882579e-03 -1.52353132e-02 +1.10018887e-01 +2.17236262e-02 +1.26198292e-01 +2.64257267e-02 +7.00485185e-02 -4.60615344e-02 +9.85338837e-02 +9.49951820e-03 -7.49694929e-02 -8.72429758e-02 -2.03597359e-02 -1.11024380e-02 -7.58248791e-02 +1.58386916e-01 -8.55632126e-02 -7.17343092e-02 -1.05921803e-02 -1.06237698e-02 +7.96827450e-02 +5.19113876e-02 +2.23606527e-02 -7.64655024e-02 -2.62276530e-02 -9.85152274e-02 -4.00495306e-02 +1.07273467e-01 +9.92861539e-02 -8.44037998e-03 +1.27682179e-01 +3.65236104e-02 +8.73563737e-02 -7.79111460e-02 +9.20123756e-02 -7.68714696e-02 -1.71817727e-02 +7.97367319e-02 -1.01528466e-01 +4.14166823e-02 +1.08909257e-01 +7.00407624e-02 -1.17546007e-01 -6.27827570e-02 -2.12762095e-02 -3.03036347e-02 +3.99324410e-02 -1.07596964e-01 -6.83061313e-03 -9.70319957e-02 +1.14941791e-01 +6.09927662e-02 +7.35750198e-02 +7.16748312e-02 +1.07454062e-01 -8.26995522e-02 -5.53960651e-02 +1.09207511e-01 +1.00236744e-01 +1.22196741e-01 +1.10064536e-01 -8.05625245e-02 +7.41117820e-02 -1.91949531e-02 +3.23360600e-02 -8.13242719e-02 +6.55745342e-02 +2.30539106e-02 -8.46901983e-02 -3.87231521e-02 -8.46558586e-02 +1.36534616e-01 +4.60873991e-02 -7.38034770e-02 +9.91156138e-03 -1.47812674e-02 +3.27526778e-02 +1.27507105e-01 +5.89099638e-02 +4.84966859e-02 +3.85665372e-02 -7.11704716e-02 +9.56152081e-02 -9.05072540e-02 +1.15336902e-01 +7.34475628e-02 -1.42207108e-02 -8.22026595e-06 -8.01915824e-02 +1.35277256e-01 -1.14626609e-01 -8.54447410e-02 +8.88420194e-02 +3.90257090e-02 -9.56668481e-02 -2.76191738e-02 -1.12493942e-02 +5.28354459e-02 -9.84049169e-04 +9.94955897e-02 +3.44305933e-02 -2.07822863e-02 -1.25848219e-01 +1.14757530e-01 -1.02591896e-02 -8.09097663e-02 -6.66139573e-02 +1.27169210e-02 -1.27738684e-01 -9.20661986e-02 +1.38604447e-01 -8.95622671e-02 -8.39192569e-02 +8.19619000e-02 +1.28249422e-01 +7.22729182e-03 -1.07258216e-01 -1.93194728e-02 -9.96643528e-02 -1.06161244e-01 +1.31606922e-01 +5.05186170e-02 -2.67037190e-02 +2.01201928e-03 +8.43903348e-02 +5.84187470e-02 +2.18518060e-02 -8.59273449e-02 +6.54479265e-02 +2.86033098e-02 -5.87430373e-02 +1.36438265e-01 -3.41907181e-02 -1.29575148e-01 -1.16770901e-01 -6.26811609e-02 +3.12185362e-02 +1.34546250e-01 +5.60530508e-03 -3.17807891e-03 +5.74489646e-02 +5.84957525e-02 -4.09331322e-02 +7.75614977e-02 -5.70494570e-02 -7.69776478e-02 -9.03324932e-02 +4.44923416e-02 -5.44142351e-03 +6.22836091e-02 -7.06577152e-02 -9.14202929e-02 +5.32023311e-02 -1.02003753e-01 -7.37074912e-02 -8.58310014e-02 +1.63421743e-02 +1.14453293e-01 +7.67218992e-02 +7.95419216e-02 -4.04410101e-02 +8.54499191e-02 -2.83905473e-02 -9.87371430e-02 -3.17711048e-02 +1.22781694e-01 -3.60008189e-03 +9.86385345e-02 +1.77391386e-03 +9.21795815e-02 -7.27471113e-02 -9.04140845e-02 +8.85309950e-02 +8.46605375e-02 -2.34000515e-02 +6.43719211e-02 +1.47164792e-01 +1.13079429e-01 -3.27734649e-02 -4.17612940e-02 -2.78066052e-03 +9.39924791e-02 -9.52930748e-02 +1.16686091e-01 +6.93075433e-02 +1.44996941e-01 +9.51840430e-02 +1.08688958e-01 -6.56270534e-02 +6.10592775e-02 -1.24197401e-01 -7.75194541e-02 +1.36956558e-01 +6.94859177e-02 +5.53919226e-02 -8.70969519e-02 +4.47177701e-02 -1.13743003e-02 +9.10751000e-02 +3.24066877e-02 +4.81573381e-02 +6.26107827e-02 -3.07610862e-05 -8.87002051e-03 +6.94627985e-02 +3.40812914e-02 -6.09836020e-02 -8.93599540e-02 +4.15409403e-03 -7.25132301e-02 +2.62374338e-02 -9.36983973e-02 -5.70613705e-02 -5.55072092e-02 +2.69096717e-03 +9.20307115e-02 -1.90053973e-02 -7.16253594e-02 -6.76798970e-02 -1.22023551e-02 -3.97929689e-03 +6.77941144e-02 -1.65312123e-02 -2.65017953e-02 +2.28980966e-02 +6.89603165e-02 -8.20955634e-02 -1.45933807e-01 -1.14189453e-01 -9.77059454e-03 +9.18052942e-02 +6.47764746e-03 +3.76984738e-02 -7.90709183e-02 +8.92264321e-02 +7.68552199e-02 -4.12957035e-02 +6.54809996e-02 -3.72249559e-02 +5.56433313e-02 -7.36533776e-02 -8.88561383e-02 +1.38937995e-01 +5.69611378e-02 -1.08268768e-01 -5.16154841e-02 +6.07903711e-02 +8.72049481e-02 -1.25804143e-02 +1.23653419e-01 +3.07588447e-02 -1.18968055e-01 +4.00491692e-02 -3.73967811e-02 -3.75073738e-02 +3.71717885e-02 -1.22783974e-01 -9.76148248e-02 +9.05168802e-02 -1.65698715e-02 -3.95162515e-02 -3.25116403e-02 -8.14214125e-02 -6.34418279e-02 -1.04380891e-01 -8.37080330e-02 +3.70866284e-02 -1.00051567e-01 +8.72957036e-02 +5.65508120e-02 +1.23015180e-01 +1.09977245e-01 -1.23912096e-01 -3.69020402e-02 +7.69349113e-02 -4.24196199e-02 -9.37682837e-02 +3.54799405e-02 +8.92938897e-02 +9.38364565e-02 +1.21985726e-01 -1.06785245e-01 -9.30676982e-02 +1.31556675e-01 +5.08003123e-02 -3.28237042e-02 -1.07158005e-01 +7.68727139e-02 +8.74874070e-02 +5.52169569e-02 -8.59172568e-02 +5.43233305e-02 -9.26034376e-02 -1.00834645e-01 +6.50523901e-02 -1.66197252e-02 -1.11849509e-01 -7.02820122e-02 +4.47260030e-02 +3.65151353e-02 +7.96591714e-02 +1.51515737e-01 -9.97797772e-02 -4.02148701e-02 -2.74977628e-02 +1.12859190e-01 +6.77274168e-02 +2.56875418e-02 -9.01252329e-02 +2.85924915e-02 -1.15501955e-01 -6.96054921e-02 -1.12632278e-03 +1.01062059e-02 +1.89688690e-02 -3.26394290e-02 -1.72737502e-02 +8.05788189e-02 +1.26477197e-01 -5.73507026e-02 -9.93273929e-02 -6.01666048e-02 +5.94287328e-02 -2.31409948e-02 -9.70996395e-02 +6.28696233e-02 +8.77153948e-02 -4.55649719e-02 +5.35269454e-02 +8.14684033e-02 +5.28627932e-02 +4.24236245e-02 -3.16925086e-02 +4.14548963e-02 -9.31984838e-03 +4.55317274e-02 +2.14966275e-02 -1.05361223e-01 -8.72209594e-02 +3.72109078e-02 -6.85478386e-04 +1.29230581e-02 +2.68370491e-02 -4.94111739e-02 -3.64752673e-02 +3.73829342e-02 +8.42856392e-02 +1.59204453e-02 +2.66491179e-03 -3.90592217e-02 -2.12772470e-02 -1.26846671e-01 +5.58937609e-04 -2.93788575e-02 +1.07348844e-01 -8.09179097e-02 +3.30207832e-02 -8.81284401e-02 -9.00888443e-02 +7.77397528e-02 +5.25366291e-02 -1.95780098e-02 -2.00811271e-02 +1.04833066e-01 -8.29113647e-02 -5.16135022e-02 -1.15679353e-02 +1.39506618e-02 +4.63086292e-02 -1.38012514e-01 +1.35577470e-01 -1.57506347e-01 +5.43908738e-02 -5.09288386e-02 -1.02397040e-01 +6.77843913e-02 -1.08396538e-01 -1.10219397e-01 +1.14944920e-01 +1.24720462e-01 -1.08891554e-01 -9.38348696e-02 +5.69190457e-02 -1.32820562e-01 -3.52703482e-02 -7.39600658e-02 -2.88493522e-02 +1.17920406e-01 +2.01228708e-02 -1.31699935e-01 -8.24715644e-02 +1.37692392e-01 +4.42165136e-02 +1.15662999e-01 -4.63493057e-02 +1.06739141e-01 -6.03290386e-02 +3.50562856e-02 -1.24112666e-01 +8.30500647e-02 -7.43831322e-02 +5.07417843e-02 +1.28584951e-01 -6.95817769e-02 -1.13681331e-01 -2.54532266e-02 +7.69182295e-02 +4.33715954e-02 +1.32735848e-01 -1.66040957e-02 +9.91054531e-03 -5.32462262e-02 +1.16673782e-02 +7.80123919e-02 -1.22170463e-01 -1.75737310e-02 -1.35492384e-02 +5.74923754e-02 -2.44952310e-02 +1.01849377e-01 -5.92686869e-02 +4.20753025e-02 -1.04354322e-02 -2.03703977e-02 -2.72203200e-02 -9.81799513e-02 +1.16704546e-01 +9.65303928e-02 +7.05803409e-02 -7.43662342e-02 -1.32039502e-01 -1.11359090e-01 -1.07990263e-03 +6.06721193e-02 -9.39741582e-02 +2.61248276e-02 +2.17894576e-02 -3.21304314e-02 +8.64138305e-02 +9.47541073e-02 -8.91010910e-02 -1.59276262e-01 +8.21743980e-02 -9.45173874e-02 +3.87748480e-02 -1.50401555e-02 +6.52856305e-02 -9.41139683e-02 +7.07295462e-02 -1.09969433e-02 -1.23171218e-01 +1.36929704e-02 +7.19934180e-02 +7.43032247e-02 +9.62936357e-02 +1.23205520e-01 +6.72736838e-02 -4.42549549e-02 -8.59000459e-02 -7.90414587e-02 +4.86917682e-02 -4.76767533e-02 -1.00042246e-01 +7.73193762e-02 -1.04407996e-01 +6.67676553e-02 +4.66339067e-02 +7.41996393e-02 -4.93014902e-02 -3.07882745e-02 +9.99708027e-02 +3.46363001e-02 -5.79897873e-02 +3.88603695e-02 +5.81442080e-02 -5.02023548e-02 +6.00392595e-02 -4.13925648e-02 +1.01983428e-01 +3.27140465e-02 +1.04969647e-02 -4.46828455e-02 -1.37886986e-01 +1.46312322e-02 -2.90408190e-02 +3.59745324e-02 +1.22618057e-01 +2.96908282e-02 -1.22643746e-01 -1.43420380e-02 +1.08608171e-01 +4.62589264e-02 -1.18412077e-02 -9.42322984e-02 -1.26791969e-01 -9.51156765e-02 +4.59519736e-02 +7.65573978e-02 -2.85250228e-02 -9.44397505e-03 +1.03970654e-01 -2.54818872e-02 -1.28810883e-01 +2.04241537e-02 -9.16902944e-02 -1.24584794e-01 +6.91452995e-02 +5.77637590e-02 +1.09566689e-01 -1.16738647e-01 -1.39894634e-02 +1.95911564e-02 -3.68075557e-02 -1.23308972e-01 +1.17245793e-01 +1.22636333e-01 +8.80958363e-02 -9.13850814e-02 -1.16760567e-01 +1.24702439e-01 -3.76047380e-02 -1.18204705e-01 -5.16970195e-02 +3.33664231e-02 -9.41644907e-02 -1.09003916e-01 +4.91790175e-02 -1.20474994e-01 -2.70625986e-02 -1.02596186e-01 -7.13152736e-02 -1.22485779e-01 +1.03409931e-01 -2.76785307e-02 +8.53690729e-02 -1.04420334e-01 -6.94027245e-02 +8.80977896e-04 +1.84804387e-02 -1.04225963e-01 +1.03981987e-01 +8.48439485e-02 +7.88830668e-02 +9.39753186e-03 +5.38006462e-02 +8.56454950e-03 -1.02764614e-01 -4.97124419e-02 -3.74911688e-02 -3.42334509e-02 -1.17055371e-01 +5.75581938e-02 +9.88676026e-02 -9.74911898e-02 -7.82272816e-02 +1.08890891e-01 +8.13240260e-02 +1.03578939e-04 +2.84965560e-02 -5.23594283e-02 -8.41750130e-02 +6.22082986e-02 -4.89158742e-02 -6.16017841e-02 +4.36048135e-02 -1.19284824e-01 -6.22176416e-02 +9.46207717e-02 -2.95344759e-02 +9.83946100e-02 +1.24143977e-02 +8.22446942e-02 -1.26273036e-01 +5.40717021e-02 -3.08487238e-03 -6.92334250e-02 -5.23247011e-02 -1.41447946e-01 -1.08533002e-01 -1.99984703e-02 +4.61846143e-02 -1.09164283e-01 +9.56072658e-02 +1.38116091e-01 -1.04893789e-01 +1.04215465e-01 -3.39658558e-02 +9.40587074e-02 +2.13474892e-02 +1.18056782e-01 +1.03416286e-01 -4.30776738e-02 -8.38007554e-02 +3.89208682e-02 -4.66713347e-02 +6.71785399e-02 +9.17856768e-02 +7.23444521e-02 +5.07967919e-02 +1.31743133e-01 +5.94045147e-02 -5.74952830e-03 +4.39333282e-02 -4.71113250e-02 -8.35044961e-03 -6.88395323e-03 -7.35156462e-02 -4.36160862e-02 +3.99353504e-02 +8.62027705e-02 -1.62971895e-02 -8.71269405e-02 +1.14122055e-01 -7.43758678e-02 +3.70051824e-02 -2.65420005e-02 -1.26191452e-01 +3.15971263e-02 -1.29264891e-01 -2.54781730e-02 -3.47188637e-02 -1.51028678e-01 +3.72408889e-02 +1.31533906e-01 -2.68026162e-02 +3.01035400e-02 -1.38549432e-01 -1.53520415e-02 -9.86103937e-02 +5.64184375e-02 -2.96189170e-02 -1.54572465e-02 +5.50788678e-02 -6.29268065e-02 -8.08915645e-02 -5.36779724e-02 -1.30150646e-01 +4.40554367e-03 +2.79643405e-02 -3.88604961e-02 -2.20228247e-02 -1.21807463e-01 -1.19961962e-01 -3.47083174e-02 -4.97847088e-02 +1.28220946e-01 -1.02189273e-01 -8.36687535e-02 -8.85652751e-02 -3.23391818e-02 -7.12545589e-02 -5.69533817e-02 +1.36806518e-01 +1.00463174e-01 -6.47710860e-02 -4.89200205e-02 -1.04475923e-01 -5.94112240e-02 +4.46178652e-02 +1.92156732e-02 +2.99672093e-02 +6.12502880e-02 -9.30239260e-02 +1.09317854e-01 -5.04797362e-02 -3.51367518e-02 +4.91339266e-02 -2.19862051e-02 -7.01221579e-04 +1.48700088e-01 +1.48222428e-02 +2.93545891e-02 -1.25547767e-01 -1.04745537e-01 -9.60744247e-02 -2.75160111e-02 +7.90144596e-03 -1.49245523e-02 +6.04917519e-02 +1.26576647e-01 -8.14029649e-02 +1.05348922e-01 -6.51428699e-02 -6.16652183e-02 -3.36580037e-04 -9.24251899e-02 +1.00379549e-01 -7.64786080e-02 -6.50016218e-02 -1.21294662e-01 +2.96855122e-02 -6.82557235e-03 -1.02363959e-01 +1.15617745e-01 +1.18114538e-01 +1.24085084e-01 +9.14839562e-03 +1.20350316e-01 -4.30335104e-02 -2.43062750e-02 -5.69630531e-04 -6.88768923e-02 +1.24796495e-01 +9.76646468e-02 +3.63607518e-02 +1.00391783e-01 -9.83157530e-02 +1.25406682e-01 -9.75110680e-02 +2.08413098e-02 -6.81124404e-02 -4.70297821e-02 -9.94781405e-02 +6.77995533e-02 -3.80688719e-02 +5.11957519e-02 +5.71266785e-02 +3.40236425e-02 -1.12608373e-01 +1.28816098e-01 +6.82420656e-02 +1.19562782e-01 -3.75018716e-02 -5.56871388e-03 -1.47394033e-03 -8.84352326e-02 +6.12550266e-02 -9.85610411e-02 -5.15683964e-02 -5.46513423e-02 +7.15571940e-02 +5.22606773e-03 +5.07349782e-02 -8.53501558e-02 +7.88786784e-02 -1.00390419e-01 +3.25042903e-02 +5.13416231e-02 -6.07146434e-02 +7.60168582e-02 -1.31813195e-02 -5.84795773e-02 -7.27741495e-02 +5.50869368e-02 +1.01084664e-01 +5.40514477e-02 -4.41096351e-02 -2.07918081e-02 -8.38896409e-02 +7.15704486e-02 -7.23998472e-02 +8.95243958e-02 -8.00258964e-02 -2.44544689e-02 -1.67408288e-02 -5.96064664e-02 +8.55619088e-02 -3.82086784e-02 +1.00572847e-01 +3.34688602e-03 -2.63282303e-02 +3.84121798e-02 +2.83128191e-02 -9.64706317e-02 -8.43195021e-02 -9.80446562e-02 +9.75458473e-02 +9.93498936e-02 -3.61161144e-03 +1.16268761e-01 +4.21387777e-02 +1.22750826e-01 +1.09978124e-01 -1.15294509e-01 +4.72384281e-02 +3.54113877e-02 +2.51518190e-02 +1.15093760e-01 +9.76217538e-02 -2.13844758e-02 -1.24490790e-01 -5.84482476e-02 -3.11462805e-02 +8.07225630e-02 +7.51394331e-02 +3.77118662e-02 +6.19362630e-02 -1.49645107e-02 -4.37820591e-02 +6.21981220e-03 +1.01903774e-01 +9.10147950e-02 -5.96447103e-02 +3.28286029e-02 -1.10604189e-01 -9.69378725e-02 +6.66944087e-02 +1.29765421e-01 -2.99749263e-02 -1.04048580e-01 -9.88663658e-02 +4.16645035e-02 +7.04754144e-02 +9.16687772e-02 -2.80365683e-02 +1.30727187e-01 +2.71805916e-02 +8.30285028e-02 +1.09022595e-01 +1.14831068e-01 +1.25348940e-01 +9.28081945e-02 +1.56606233e-03 +6.50503859e-03 -4.52569872e-02 -4.02543247e-02 +1.25643179e-01 +9.26991645e-03 +6.23688996e-02 +1.03790918e-02 +7.95270279e-02 +6.20160401e-02 +9.92365181e-02 -6.85446039e-02 +1.73360053e-02 +1.35147184e-01 +1.32055849e-01 -2.55445670e-03 +1.03642121e-02 +7.36811310e-02 +6.08683713e-02 -1.24695860e-01 -1.19975992e-01 +2.66941562e-02 -1.09763503e-01 -1.82174460e-03 +1.06529720e-01 +1.01977587e-01 +4.81553413e-02 +1.34477228e-01 -1.13998473e-01 +1.05819255e-01 -6.83789402e-02 -2.46625561e-02 -1.15863293e-01 +2.43414473e-02 -4.05100323e-02 -1.01404123e-01 +1.03500448e-01 +1.01260692e-01 +1.22452244e-01 +1.10564053e-01 -9.69551951e-02 +1.49236508e-02 -9.83708352e-02 -9.61795915e-03 +1.79364942e-02 +2.01045815e-02 +1.56008946e-02 -1.17904268e-01 -4.66435328e-02 +1.02242157e-01 -7.46268928e-02 -6.86864927e-02 -7.09194914e-02 -3.46771590e-02 -9.09314826e-02 -3.77578884e-02 +7.76483491e-02 +1.04985796e-01 -1.32675409e-01 -2.87226252e-02 -1.76723450e-02 -8.80550593e-02 -7.84591734e-02 -3.03299818e-02 +4.79702316e-02 -2.70008724e-02 +3.42053585e-02 -1.10555202e-01 +1.54186934e-01 +8.64833370e-02 -1.29611373e-01 +3.16560715e-02 -1.16103217e-01 +9.23111588e-02 +1.17079444e-01 -4.98056635e-02 +9.92567837e-02 -4.53981422e-02 +9.30612907e-02 +3.12767290e-02 +1.25277847e-01 +4.74690460e-02 +8.90286863e-02 +1.11867689e-01 -1.90406386e-02 -9.85117629e-02 +1.35763377e-01 +1.07066736e-01 -7.07063377e-02 -3.78201790e-02 +3.05244680e-02 +6.37195408e-02 +3.71352024e-02 -3.85215171e-02 -3.30071039e-02 +1.44555598e-01 -1.05150536e-01 -1.16779439e-01 +6.15318939e-02 +1.02286413e-01 +5.20401485e-02 +1.01165242e-01 +4.23368365e-02 +6.50081411e-02 -2.46112701e-02 +4.26275190e-03 +8.52353945e-02 +1.25408992e-01 -1.00326441e-01 +4.12120530e-03 -2.32157521e-02 -1.17180325e-01 -5.11724055e-02 +9.61131826e-02 +2.72414014e-02 -2.34829914e-02 +7.22633749e-02 -1.16893603e-02 +9.87581760e-02 -4.92710844e-02 +9.87033993e-02 -9.05445144e-02 -1.06146351e-01 +9.52567812e-03 -4.24808972e-02 -9.03974101e-02 -2.53240373e-02 -9.55107734e-02 -9.64009762e-02 +2.38281228e-02 -8.46206695e-02 +1.40178101e-02 +1.27671048e-01 +3.79924290e-02 -1.29763752e-01 +2.81836782e-02 -7.65273646e-02 +1.25511140e-01 -1.01153523e-01 -1.34587854e-01 +6.57432675e-02 +9.99649838e-02 +2.72248350e-02 +5.52837066e-02 +7.06405863e-02 -2.55005360e-02 -6.19941354e-02 +4.99962410e-03 -9.99309644e-02 +6.00227527e-02 -4.16669361e-02 -3.11077666e-02 +7.49222413e-02 +5.62233776e-02 -3.23987380e-02 +6.31851330e-02 -5.81387952e-02 +1.40802622e-01 +1.99739411e-02 +6.78751469e-02 +1.22708589e-01 -8.64924863e-02 +8.33981037e-02 -1.14244029e-01 +5.35018705e-02 +1.09727256e-01 +2.75359140e-03 +8.58898163e-02 +1.09565504e-01 -8.77654850e-02 +1.71904981e-01 +3.95389721e-02 +4.32104543e-02 +1.32557135e-02 +9.42211673e-02 -4.17240001e-02 +1.49611771e-01 -5.90021648e-02 +7.65408427e-02 -9.83581692e-02 -1.32407537e-02 +7.29778558e-02 +2.89777368e-02 +1.26517072e-01 -8.03876743e-02 -6.31824210e-02 -7.81482086e-02 -5.93683906e-02 +1.28390804e-01 +8.64766911e-03 +5.79528250e-02 -3.68339717e-02 +5.55860810e-02 +8.32266957e-02 +1.11297041e-01 -8.90840515e-02 +2.89363647e-03 -2.76279356e-02 +5.60709462e-02 -3.84156816e-02 -1.06729425e-01 +9.04978290e-02 +7.03007579e-02 -9.02250595e-03 +2.40205741e-03 +4.58702119e-03 +1.17023930e-01 +6.47111610e-02 +9.06359330e-02 -5.84569015e-03 +1.12769075e-01 +6.36896640e-02 -7.66764358e-02 +3.61792967e-02 +1.38348997e-01 -9.69765186e-02 +1.32686287e-01 +7.38861389e-04 -7.73722902e-02 -3.60312834e-02 -8.55759308e-02 +9.18140355e-03 +1.86467655e-02 +7.43011236e-02 +7.14574307e-02 -3.64231691e-02 +1.05271108e-01 -5.58686778e-02 -1.26902521e-01 -4.79959436e-02 +7.25878850e-02 -1.11158043e-02 -6.85082078e-02 -1.04936004e-01 -9.39816386e-02 +6.92555234e-02 +9.43769366e-02 -1.30779579e-01 -8.31859931e-02 +1.54307753e-01 -1.94246154e-02 +1.03266612e-01 -3.68618756e-03 +4.43841107e-02 +1.17688719e-03 -7.48915747e-02 +8.18507150e-02 -3.85305174e-02 -5.22386357e-02 -1.12851657e-01 -5.64472191e-02 -4.60996181e-02 +9.56288353e-02 +1.58916377e-02 +1.19107790e-01 -6.58622980e-02 +5.29777147e-02 +1.09578058e-01 +7.54365474e-02 +1.24020405e-01 -5.55171818e-02 +4.05204147e-02 +2.48675328e-02 -1.11358292e-01 +8.81059319e-02 -1.01164207e-01 -4.27299365e-02 -1.02740809e-01 -6.48737699e-03 +1.47643641e-01 -3.77299488e-02 +3.11734155e-02 +1.28031164e-01 -3.09805125e-02 +1.02513663e-01 -4.42950837e-02 +1.54237464e-01 +7.73442760e-02 +6.16976507e-02 +7.08022267e-02 -8.33847970e-02 -2.69466899e-02 -1.31036624e-01 -1.29958048e-01 -7.60463206e-03 +6.34276047e-02 -9.02847052e-02 +9.91657078e-02 +3.48219723e-02 +4.24917489e-02 -4.32310477e-02 +2.24184208e-02 +4.36849333e-02 -1.08472414e-01 +1.31764546e-01 -3.04964408e-02 +1.49964923e-02 -6.48368746e-02 +1.55494120e-02 -1.12529464e-01 +1.25710770e-01 -1.92611329e-02 +6.62735254e-02 -5.92783689e-02 +1.55228274e-02 -6.52547255e-02 -5.64470014e-04 +2.66226437e-02 +1.89490002e-02 -7.22578391e-02 -7.65049644e-03 -1.03250541e-01 +3.56230214e-02 -8.71993452e-02 -3.26901451e-02 +8.63008723e-02 +1.51983410e-01 -7.63133317e-02 -1.56172842e-01 -1.38100088e-02 -5.63882131e-05 -1.64737962e-02 +4.67625298e-02 +1.31392747e-01 -1.07353956e-01 +1.04768537e-01 -1.39630839e-01 +2.69865687e-03 +1.07787684e-01 +1.94342751e-02 +1.00156583e-01 -2.87063271e-02 +3.81954275e-02 -1.48637056e-01 +6.21494390e-02 +4.30114940e-02 +8.54003709e-03 +6.16442077e-02 +1.30672589e-01 -3.55984233e-02 +2.04926413e-02 +1.10252224e-01 -4.09647711e-02 +3.98248546e-02 -5.38919084e-02 +3.97680551e-02 -7.24799037e-02 -4.42500748e-02 +6.21843338e-02 +9.28471014e-02 -4.82978411e-02 +5.57380989e-02 +7.39777908e-02 +5.97513188e-03 -1.97146870e-02 +4.33386816e-03 -6.72062412e-02 +1.86158866e-02 -3.74513194e-02 +3.23338434e-02 -5.31687923e-02 -9.88108851e-03 +2.94220969e-02 -7.16400445e-02 +9.39008314e-03 -7.33083263e-02 +5.99893704e-02 +8.01307783e-02 -7.21520036e-02 +3.70954834e-02 +3.95537540e-02 +6.39419407e-02 +8.08096230e-02 -8.19761381e-02 +1.08490728e-01 +6.17726445e-02 +8.94191954e-03 +4.22777645e-02 +1.60999224e-02 +2.53169313e-02 -6.98612481e-02 +9.14582536e-02 +1.27753675e-01 -2.18132194e-02 +7.56076425e-02 +1.14983350e-01 +1.12309068e-01 +9.62637588e-02 -5.72378151e-02 -1.36302680e-01 -4.71389778e-02 +2.08071005e-02 +1.64124486e-03 +9.52994972e-02 +7.40757883e-02 +1.01994842e-01 +8.56005400e-02 -2.24528778e-02 -3.40899341e-02 -7.24062100e-02 +1.88412685e-02 +6.44793361e-03 -7.65720680e-02 -4.76862080e-02 -1.08083664e-03 -1.12828344e-01 +4.71136905e-02 -8.69704112e-02 +1.23970667e-02 +1.35562614e-01 +5.65318763e-02 -2.61638463e-02 +3.72574963e-02 +9.66090038e-02 +3.09225861e-02 +1.27685107e-02 +1.09566435e-01 +3.58524956e-02 +3.13735977e-02 +9.03807580e-02 +5.24268672e-02 -7.31655136e-02 -4.31600073e-03 -1.25490785e-01 +1.03568189e-01 -6.72531500e-02 +4.32054140e-02 -1.09230824e-01 +1.25710750e-02 -5.13199568e-02 +1.26028195e-01 -8.75588208e-02 -3.38845849e-02 -6.48516044e-02 -1.28691085e-04 -7.71329328e-02 -1.04919992e-01 +5.84392212e-02 +3.35237794e-02 +1.29265964e-01 +4.06234860e-02 +7.68898502e-02 -7.15340348e-03 -2.76000374e-05 +2.91469283e-02 +4.82141972e-02 -5.37505783e-02 +3.69888917e-02 -6.91511407e-02 +5.14685586e-02 -1.24131583e-01 -1.83061771e-02 +7.60643333e-02 +2.34469268e-02 +9.22956169e-02 +6.11871202e-03 -7.79911801e-02 -1.00270316e-01 -2.91189030e-02 +4.26395796e-02 -7.88824260e-02 +5.07979356e-02 -3.10916314e-03 +1.03772223e-01 -6.44077882e-02 +1.29002735e-01 -2.92379744e-02 -1.16041422e-01 -8.71147811e-02 -8.70008022e-02 -8.82738456e-02 -1.04877263e-01 +4.10433486e-02 +1.00668520e-01 +6.39000684e-02 -1.20366663e-01 +1.21067233e-01 +1.16629243e-01 +1.03235669e-01 -3.94297466e-02 +2.20966879e-02 +6.45320788e-02 +3.93411070e-02 +4.67948839e-02 -1.05634570e-01 -1.82922892e-02 -8.68894160e-02 +1.40297981e-02 +6.57228986e-03 -1.48953788e-03 +5.76513745e-02 +1.05738498e-01 +9.87129211e-02 +1.26904055e-01 +1.17318019e-01 +2.62706336e-02 +9.86920670e-02 -1.16297044e-01 -8.14229436e-03 +4.10930961e-02 -3.28245722e-02 -2.90041957e-02 -3.35746519e-02 +5.29824719e-02 +3.27042378e-02 +1.10492326e-01 +9.43188556e-03 -4.37162705e-02 +2.33801361e-02 -1.53637258e-02 -7.30222762e-02 -7.69049600e-02 -8.98007676e-02 +7.37081245e-02 +1.17309198e-01 -8.78869966e-02 -9.72407237e-02 +2.77301185e-02 +1.36449337e-01 +5.35901152e-02 +9.75274444e-02 +8.02716315e-02 -8.30189288e-02 +8.32995214e-03 -8.84878784e-02 -7.24387541e-02 -1.01851188e-01 -2.03261748e-02 +9.57851708e-02 +6.96820840e-02 +3.53102461e-02 +1.21255316e-01 -1.03558756e-01 +1.12687871e-01 -1.91932190e-02 +1.75039694e-02 -2.02504499e-03 -3.91129497e-03 +6.79430589e-02 -6.94413781e-02 +9.98424366e-02 -2.73288786e-02 -9.54276994e-02 -6.58214167e-02 +1.34934068e-01 -4.57559712e-02 -3.53109986e-02 -1.42998859e-01 -2.90399455e-02 -5.64615577e-02 +4.40920051e-03 -1.35566238e-02 -5.02728559e-02 -3.39369513e-02 -6.70209974e-02 +8.72148275e-02 +1.36625066e-01 -3.33379991e-02 -8.30901489e-02 -1.01785474e-01 +4.16364335e-02 +9.56460312e-02 +6.35500550e-02 -2.10856050e-02 -8.23464915e-02 -4.70049940e-02 -1.84931252e-02 +1.13870725e-01 +9.30800885e-02 +1.08304530e-01 +5.91876246e-02 -2.94694901e-02 -1.14651009e-01 -5.14921881e-02 -1.19360693e-01 +1.11129366e-01 -5.18788099e-02 -8.06903616e-02 +7.94468373e-02 -3.82504351e-02 +9.98428017e-02 -5.44231273e-02 -1.32970884e-01 -2.08029822e-02 +1.09294713e-01 +8.45621005e-02 +8.52091685e-02 -9.50969607e-02 -9.02666897e-02 -4.45725359e-02 +2.53810752e-02 +8.32114369e-02 -1.03372140e-02 -1.17279582e-01 -1.24816298e-01 +1.15165524e-01 -7.03033432e-02 -1.38476893e-01 -8.98475796e-02 -3.04003730e-02 -8.09112936e-02 +7.75532573e-02 -2.15004757e-02 +1.17881708e-01 +6.78281579e-03 -3.26618296e-03 -1.41783953e-01 -2.83873044e-02 +2.26762313e-02 -9.84747987e-03 +5.34572564e-02 +9.18420777e-02 -3.00877560e-02 -4.07241890e-03 +1.19449012e-01 -7.09210858e-02 +1.01901539e-01 +1.43256411e-01 +4.14064042e-02 +1.21441729e-01 +2.95852404e-02 -9.62224007e-02 +6.63334280e-02 -9.91216451e-02 -1.35743886e-01 -5.49894236e-02 -3.99064943e-02 +9.75822583e-02 -1.23432331e-01 -1.22958526e-01 -1.28408834e-01 -1.56128509e-02 -1.64177623e-02 -1.12816200e-01 +8.77235606e-02 +8.47167671e-02 +1.72754321e-02 -1.08256927e-02 -5.84398545e-02 +8.41649696e-02 -3.46897691e-02 -1.30738737e-02 -9.47191752e-03 -5.07279150e-02 -1.23928763e-01 +3.98891941e-02 +9.39373150e-02 +1.10447528e-02 +2.91303210e-02 -7.04889148e-02 +1.66319404e-02 +1.06246136e-01 -1.37908012e-01 -1.35019407e-01 -5.97598664e-02 +1.14777982e-01 -1.01826906e-01 +8.37588161e-02 +5.47648333e-02 +9.38340090e-04 -4.09587286e-02 -6.36369288e-02 -4.21337076e-02 +8.49641114e-02 +4.71375808e-02 -1.17876373e-01 +9.65700448e-02 -3.15621793e-02 +3.91759872e-02 -3.98958549e-02 -1.05636746e-01 +2.11787950e-02 -6.19536750e-02 -9.40164402e-02 -1.07729606e-01 -9.40566286e-02 -1.23300999e-02 +1.13353260e-01 +1.93903595e-02 +9.11321267e-02 -1.14977069e-01 +1.27700428e-02 -6.35082349e-02 -1.79506019e-02 +6.11382872e-02 +2.61684414e-02 -8.48793238e-02 -6.76028132e-02 -7.25039616e-02 +9.92810726e-02 +5.68890497e-02 +6.61001028e-03 +4.08231579e-02 +8.59670639e-02 +2.48341188e-02 -4.22103964e-02 -3.93634625e-02 +4.34809998e-02 +1.05014615e-01 +5.85687533e-02 -8.40688869e-02 -1.06498018e-01 -1.10003008e-02 +1.18446670e-01 +6.18490502e-02 +7.32085574e-03 -4.72444594e-02 -1.13049835e-01 +1.39513701e-01 -2.16947608e-02 -1.29665593e-02 +7.91972354e-02 -1.19316109e-01 +1.32026523e-01 +1.04096062e-01 +1.31745666e-01 -1.17776655e-02 -6.15524538e-02 -2.41698455e-02 +8.64524394e-02 -1.46856708e-02 +2.38629542e-02 -8.07529408e-03 -3.40589359e-02 +1.17990293e-01 -1.18637513e-02 -6.35568947e-02 +7.92058744e-03 -4.42067608e-02 -3.28975990e-02 +3.25394385e-02 +3.25939734e-03 -5.61396033e-02 +1.21304490e-01 +1.19153693e-01 +9.95603129e-02 -1.16782866e-01 -9.16345567e-02 +2.15047952e-02 -1.16074532e-01 -2.93699317e-02 -1.11899304e-03 -1.70315169e-02 -5.62756211e-02 +1.24277294e-01 +1.33524925e-01 +2.23920345e-02 +2.57468666e-03 +1.70215182e-02 -3.29317302e-02 +3.02548036e-02 -1.08965866e-01 +1.25719294e-01 +6.21739849e-02 +8.47406462e-02 -6.27616867e-02 -1.20307088e-01 -8.12666640e-02 +3.66794802e-02 -8.75726193e-02 +1.25326097e-01 -1.02537185e-01 +1.37780070e-01 +1.02580696e-01 -7.99647719e-02 +8.14544261e-02 +8.57585818e-02 -4.96452376e-02 -3.48196886e-02 -5.64161651e-02 +1.12318903e-01 -1.17062880e-02 -1.09989762e-01 +1.96002182e-02 -1.23625651e-01 +8.08620676e-02 +3.33573893e-02 -9.89473835e-02 +1.77757531e-01 -1.01193808e-01 +4.77576017e-04 +6.59153908e-02 +4.34940681e-02 +5.32440357e-02 +9.13186893e-02 +1.59760211e-02 -6.85434192e-02 +3.28078717e-02 +9.51385424e-02 +1.17514759e-01 -1.04095571e-01 -4.33105640e-02 -6.28911257e-02 +1.04192927e-01 +2.03074608e-02 -8.49042460e-03 +1.12771787e-01 +1.10579744e-01 -2.07091752e-03 +2.99032796e-02 +9.36295092e-02 +5.41323647e-02 -1.28256336e-01 +2.73609944e-02 -9.19699967e-02 +6.05899133e-02 +1.81377437e-02 +4.47236933e-02 -5.99868968e-02 +1.80705693e-02 -1.05287604e-01 -9.51458737e-02 +5.24092698e-03 -3.22693251e-02 -1.26889450e-02 +2.33297367e-02 +5.55735342e-02 -2.27347575e-02 +1.29746959e-01 +8.58153701e-02 +9.19233859e-02 -1.22818597e-01 +4.22063172e-02 +8.41675550e-02 -7.61122555e-02 -7.77893066e-02 -6.30198792e-02 +1.09500304e-01 +5.36461659e-02 +1.28227636e-01 -1.07489534e-01 +4.58832197e-02 +1.37622774e-01 +1.49627417e-01 -2.06888691e-02 +1.07214935e-01 +9.67575386e-02 -8.36483911e-02 -1.29830852e-01 -1.36611074e-01 +8.84088725e-02 +1.11315146e-01 -9.73136351e-02 +3.40704359e-02 -8.91442299e-02 +6.59472048e-02 -1.43097341e-02 +1.11733598e-03 +1.31185725e-01 +6.73908144e-02 +1.32357767e-02 -9.99412090e-02 +4.61168922e-02 +1.04034282e-02 +1.25085518e-01 +1.30425766e-01 +7.84127489e-02 -9.35021117e-02 +1.14760049e-01 -8.21807981e-02 -3.78511474e-02 +1.24354124e-01 +3.20310481e-02 +7.91927353e-02 +7.14148656e-02 -2.40773428e-02 -1.63021479e-02 +1.17015027e-01 -9.26894769e-02 +1.40684411e-01 +9.87502933e-02 -6.75209686e-02 +5.07417843e-02 +3.04231085e-02 +2.14427989e-02 +1.23257376e-01 -5.24081243e-03 +2.91110910e-02 -9.75639075e-02 +7.91796297e-02 +5.59258014e-02 +5.81226796e-02 +1.20638713e-01 +1.37326032e-01 +1.03142492e-01 +7.99226314e-02 -2.35324670e-02 +7.57839605e-02 +1.03679240e-01 +1.32259682e-01 -3.30360159e-02 -1.57136172e-02 +1.12987697e-01 +1.01801986e-03 +2.47436147e-02 +6.56063631e-02 +9.63978469e-02 +6.77916259e-02 +1.17139451e-01 -1.22103013e-01 +3.12753431e-02 +1.74001139e-02 +1.78223420e-02 +1.14381455e-01 +2.90393550e-02 -9.51797217e-02 +1.25127465e-01 -1.44938473e-02 -2.00217944e-02 -2.56873518e-02 +1.26151472e-01 -8.83741900e-02 +8.72265622e-02 -5.29155210e-02 -9.42589343e-02 +1.70930848e-03 +7.54049234e-03 -2.10302249e-02 -4.96898666e-02 +4.05066554e-03 -2.87504308e-02 +1.26055732e-01 -1.17727846e-01 +3.45271602e-02 +1.75867938e-02 +1.00041911e-01 +1.95179526e-02 +3.51757072e-02 -3.22444923e-02 +6.62322491e-02 -4.70978729e-02 -3.76213677e-02 +8.48532468e-02 -1.13608697e-02 +1.22757211e-01 -4.93592247e-02 -2.06000265e-03 +5.51261865e-02 +5.31746596e-02 -4.46664803e-02 +7.70291779e-03 +7.78926834e-02 +8.84300545e-02 +1.11945346e-01 +1.49379410e-02 -5.05387969e-02 +3.70685048e-02 +1.20829143e-01 +9.55090299e-02 -5.89758456e-02 +1.32469222e-01 -1.06529534e-01 -7.69378170e-02 -5.18550538e-02 +8.39632303e-02 -7.29078054e-02 +2.28396505e-02 -4.03012596e-02 -8.96006729e-03 +6.92295879e-02 +6.14864901e-02 -4.94599976e-02 +5.64113855e-02 +5.13422973e-02 +8.66564885e-02 -1.53534487e-01 +1.14161596e-01 +1.15631804e-01 -1.15008317e-01 -4.97287437e-02 +5.76491281e-02 +5.58955260e-02 -1.66991446e-02 +1.65590141e-02 +4.58217822e-02 -5.94413392e-02 +7.24081025e-02 -1.42648686e-02 +6.06935956e-02 +4.01278846e-02 +3.93300923e-03 -9.29581970e-02 -1.20637178e-01 +2.35031247e-02 -6.24503270e-02 -1.03415726e-02 +1.21679150e-01 +3.50010879e-02 +2.42327973e-02 +7.98389986e-02 +2.53687464e-02 +6.41071498e-02 -1.26619309e-01 +5.52742854e-02 -1.08952619e-01 -1.12421609e-01 -6.94341660e-02 -4.38793600e-02 -6.18828163e-02 -5.20495921e-02 -5.37137687e-02 -3.47103551e-03 +6.83412626e-02 -2.37555970e-02 -1.06155267e-02 -4.42514531e-02 -9.79905352e-02 -6.98749069e-03 -8.69710520e-02 +3.05747297e-02 -4.60864743e-03 +7.26993382e-02 +9.97354761e-02 +2.54254565e-02 +2.57774089e-02 -1.21249810e-01 -4.06552963e-02 +9.09512416e-02 -1.08099818e-01 +2.97550466e-02 +6.65890332e-03 +1.35998018e-02 +1.04197696e-01 +9.00109336e-02 -1.11820862e-01 +1.38678206e-02 +4.83790711e-02 +1.22686177e-01 +7.38446340e-02 +5.51652461e-02 -2.42490154e-02 -2.17497554e-02 +1.95060372e-02 +1.24798551e-01 +1.03552364e-01 +1.00114688e-01 +4.18686904e-02 -6.98358715e-02 +7.10061267e-02 +4.98144515e-03 -6.59573451e-02 +8.51758644e-02 +7.77168721e-02 +2.89168116e-02 -1.54280253e-02 +2.68046726e-02 +9.85396877e-02 +7.87251070e-02 +8.25832337e-02 -7.28388280e-02 -2.28445046e-02 -8.01981539e-02 -3.02641876e-02 +6.23403043e-02 +1.15298137e-01 -1.99381653e-02 -1.43058673e-02 +1.09036528e-01 +2.50510820e-05 +1.04644410e-02 +2.89221993e-03 +6.74131513e-02 +5.50408885e-02 +3.34826186e-02 -1.18783094e-01 +1.40158413e-02 -8.38628784e-02 -1.59271446e-03 -1.64065659e-01 -1.03622049e-01 -1.39208943e-01 -1.15444675e-01 +2.09640246e-02 -1.19643509e-01 +4.60326485e-02 +7.90098757e-02 +4.49515693e-02 +1.11616895e-01 +1.01792403e-01 +2.82075554e-02 -5.33772074e-02 +1.30911963e-03 +1.15969360e-01 -3.82765867e-02 +2.47340649e-02 -1.22383118e-01 +1.21868446e-01 +8.73631686e-02 -9.63465497e-03 +1.43402323e-01 -1.39698058e-01 +1.89396273e-02 -9.59137231e-02 +7.61771761e-03 +9.32170302e-02 +1.24420431e-02 -8.18667784e-02 -1.76999215e-02 -1.01564981e-01 +8.48668888e-02 +7.77781159e-02 +5.72397932e-03 +1.82602797e-02 +1.10193556e-02 +4.58733775e-02 -7.94434547e-02 -1.14066899e-01 -6.71339780e-02 +7.23004714e-02 -7.58693889e-02 +1.14060447e-01 -1.25011116e-01 -1.14434853e-01 +5.01149222e-02 +6.72727525e-02 -7.16402084e-02 +8.41985270e-02 +1.27323046e-01 +1.19143911e-01 +4.61666510e-02 -5.87294400e-02 -7.88233429e-02 +5.69247752e-02 +7.40732299e-03 +4.87356596e-02 +7.60910064e-02 +2.25796103e-02 -3.62487212e-02 +1.11830182e-01 +1.11336820e-01 -7.24304840e-02 -1.22444220e-01 +3.86273004e-02 +2.07185168e-02 +6.66018128e-02 +6.69675544e-02 -1.00434452e-01 -1.54750273e-01 +3.80098186e-02 -6.70437366e-02 +6.98077828e-02 -5.30640334e-02 -6.50193393e-02 -1.80516951e-02 -2.47860719e-02 +2.33494826e-02 -9.03120935e-02 +8.19225535e-02 -1.22386189e-02 -3.76174366e-03 -3.25181894e-02 -8.33576471e-02 +1.11808479e-01 -2.53611617e-02 -6.61318675e-02 +6.92650527e-02 +7.85546675e-02 +1.66922994e-03 -4.35755290e-02 -1.24717444e-01 +2.22419715e-03 -9.84776691e-02 -6.21660464e-02 +9.09193754e-02 -8.09190124e-02 +4.82748672e-02 -3.65005285e-02 +1.17018878e-01 -5.55787534e-02 -4.19067964e-02 +3.61045897e-02 +1.08942747e-01 -9.77482181e-03 -1.46996096e-01 +4.07235362e-02 -9.84995905e-03 +2.29323264e-02 +3.67292352e-02 +3.28167863e-02 +8.44557509e-02 -1.50470138e-02 +1.21940479e-01 -2.51821112e-02 -3.97055820e-02 +7.44111417e-03 -3.37758921e-02 -1.40879542e-01 -2.80234888e-02 -1.55048864e-02 -7.68981234e-04 +1.14721715e-01 +1.04769364e-01 -1.22190237e-01 -7.19427094e-02 +7.00912252e-02 -9.93356034e-02 -4.75899577e-02 +1.15562759e-01 -1.06023483e-01 +1.81053393e-02 -9.47673023e-02 -1.18725561e-01 -1.18464008e-01 +2.71321014e-02 -9.95727926e-02 +1.22051083e-01 +1.14168726e-01 -8.58707875e-02 +1.28487870e-01 +1.38652453e-03 -1.50187761e-02 +3.00558042e-02 +7.54587874e-02 -5.67692183e-02 +1.10493898e-01 -9.02461857e-02 -4.62442935e-02 -4.27944623e-02 +6.14678785e-02 +5.64075746e-02 +4.17984426e-02 -6.10655453e-03 +1.20234536e-02 +7.53835738e-02 +1.22951485e-01 -8.95480439e-03 -1.17918029e-01 -8.12587962e-02 +5.80393858e-02 +4.19515073e-02 +1.15391240e-01 +5.86811313e-03 -1.03495121e-01 -8.70445967e-02 -1.23641551e-01 +1.61799584e-02 -6.85091466e-02 +2.83350851e-02 +8.41453671e-02 -3.74780260e-02 +1.36251315e-01 +3.17710787e-02 +5.72504774e-02 -5.71192242e-02 +5.43757118e-02 -6.11049160e-02 +2.37202905e-02 +1.35535687e-01 +8.34793299e-02 +1.01313271e-01 -7.84408301e-02 -6.09858241e-03 -9.33254953e-04 -5.72097898e-02 -3.84401493e-02 +7.95290153e-03 +2.35344097e-03 +1.06029119e-02 +2.03094073e-02 -4.12533246e-02 +1.03971042e-01 -8.93967133e-03 +1.48343503e-01 -1.08530007e-01 +6.33602738e-02 +2.77969446e-02 -1.17916279e-02 +1.06506497e-01 -3.32249440e-02 -8.83880332e-02 -1.24731481e-01 +9.55937579e-02 +8.58147368e-02 -4.85596247e-02 +5.76171167e-02 +9.57134068e-02 +5.75509518e-02 -5.34442179e-02 +9.38015878e-02 -1.36612236e-01 +1.06729686e-01 -5.98052032e-02 +7.67267495e-02 -1.73806176e-02 +9.95013267e-02 +1.09938838e-01 -7.65876379e-03 +6.06059842e-02 -7.60937184e-02 +4.77050878e-02 -7.38144964e-02 +2.77122781e-02 -5.68606630e-02 -1.45033315e-01 -8.91035125e-02 +9.21093747e-02 -1.03956424e-01 +7.68690035e-02 +2.24707220e-02 +4.90318090e-02 -3.19079030e-03 -1.00287542e-01 -6.12899810e-02 -5.22479266e-02 -3.75033841e-02 -7.57108405e-02 -1.18866954e-02 -1.26999781e-01 +1.08408339e-01 -3.57181989e-02 -5.80157712e-03 -1.13209240e-01 -1.70145594e-02 -1.13236301e-01 -7.70266429e-02 +5.26170209e-02 -5.70647717e-02 -2.75319442e-02 +5.72326370e-02 +3.21580619e-02 -1.71679929e-02 +1.15594156e-01 +3.33533064e-03 -1.12119690e-01 +4.04280238e-02 -1.26904115e-01 -1.89136080e-02 +9.06560719e-02 +6.86786398e-02 -3.51945981e-02 +9.47758034e-02 +2.94501539e-02 -4.20508385e-02 +3.07660270e-02 +3.76023836e-02 -1.22231312e-01 -8.82280692e-02 +6.55668080e-02 -3.58137153e-02 -5.16051576e-02 +9.15129483e-02 -4.73281369e-03 -8.96794256e-03 +6.87761307e-02 +4.59857173e-02 +8.13496187e-02 +9.30586606e-02 +7.99877197e-02 +6.86268955e-02 +5.84656261e-02 +1.29060090e-01 +6.90223649e-02 +5.98611981e-02 -4.46950197e-02 +2.39672679e-02 +7.87624866e-02 -3.83923613e-02 -4.43225130e-02 -2.66164970e-02 -5.88488765e-02 +4.47575375e-02 +2.95626614e-02 -8.62175897e-02 +2.01546997e-02 -6.65760860e-02 +5.77818975e-02 -2.23979540e-02 +7.66106322e-03 -1.17224298e-01 -8.73692930e-02 -1.17962673e-01 -6.42488450e-02 +1.18098380e-02 -1.75397750e-02 -3.73729356e-02 -6.55228198e-02 +3.12996805e-02 +4.94846106e-02 -1.15612261e-02 +3.18153277e-02 -5.14124148e-02 -4.47489880e-02 -9.55736488e-02 -1.07504532e-01 +7.22825825e-02 +2.97701918e-02 +7.01580495e-02 +1.01988772e-02 -6.99420124e-02 -8.33363310e-02 +1.04431789e-02 -7.45150400e-03 -1.33109480e-01 +9.59249735e-02 +4.18295786e-02 -2.09491570e-02 -4.09132764e-02 +7.05668777e-02 -1.39323659e-02 +2.03826055e-02 -1.16879560e-01 +4.23380733e-02 +2.70108059e-02 +4.68825400e-02 -1.08196251e-01 -1.54012367e-02 +6.66969037e-03 +7.35427812e-02 +8.50240439e-02 +1.37512937e-01 +1.26339778e-01 -8.94010160e-03 -9.22579542e-02 -1.26212183e-02 +1.52396746e-02 +4.27528769e-02 -8.82284865e-02 -2.20223721e-02 +3.01892385e-02 +9.92104113e-02 +7.55685717e-02 -8.88524726e-02 -3.66034918e-02 -5.27733080e-02 -3.15700658e-03 -2.21282225e-02 +8.10146108e-02 -1.22172393e-01 -3.00502460e-02 -1.14182942e-01 -2.12006345e-02 +1.21284977e-01 -1.26561830e-02 -7.10568577e-02 +6.90049008e-02 +1.13599412e-01 +8.41575712e-02 -7.21837506e-02 -3.29069756e-02 -3.32538527e-03 +6.49423450e-02 +1.15645519e-02 +1.44283906e-01 +1.12679079e-01 -9.71780568e-02 -1.31095294e-02 -6.77402616e-02 +1.56281799e-01 -7.89857060e-02 +8.32218602e-02 -7.45015144e-02 -7.48008788e-02 +3.56844850e-02 +8.32527056e-02 +1.34752676e-01 -7.75759369e-02 +3.11938766e-02 -7.01988041e-02 +1.26860604e-01 +1.21946834e-01 -9.41908062e-02 -1.12440035e-01 +1.65810548e-02 -9.56100002e-02 +1.59262955e-01 -3.64680775e-02 +7.10768774e-02 -6.58378750e-02 +5.94607331e-02 -3.95800620e-02 +5.88269206e-03 +6.80250973e-02 -4.27505904e-04 -8.46395418e-02 +1.11646160e-01 +1.36676103e-01 -1.24162361e-01 -2.12948397e-02 -5.01337238e-02 -4.90928143e-02 +7.24775251e-03 +8.35241526e-02 +2.28786618e-02 +4.72655222e-02 -2.57315044e-03 +6.80783540e-02 -8.79434496e-02 +7.59025430e-03 +4.73102406e-02 +4.30045538e-02 -4.02140729e-02 +9.60832387e-02 -9.97416303e-02 +2.23167185e-02 -4.63682003e-02 -8.73559937e-02 -1.29932975e-02 +5.69766834e-02 -9.70135555e-02 -8.95328969e-02 -1.25638791e-03 +3.55522297e-02 +1.36607019e-02 -5.99282533e-02 -5.15436605e-02 +9.15680826e-02 -3.45036015e-02 -1.01705790e-01 +3.98177318e-02 -4.17907909e-02 -5.86464591e-02 +1.19715789e-02 +5.93086071e-02 -6.06793426e-02 +1.27477840e-01 -6.21510949e-03 -2.33996641e-02 -3.84277254e-02 -1.48102483e-02 -9.75204110e-02 +8.54178146e-02 -1.08752094e-01 -7.61318132e-02 -2.45280862e-02 +1.33302584e-01 -7.72145614e-02 +1.30805552e-01 +2.83456445e-02 -2.91205328e-02 -2.37933844e-02 -1.45817827e-02 +1.20481038e-02 +1.24572828e-01 +9.72570572e-03 +3.76910940e-02 +3.68057899e-02 -5.70516773e-02 -4.47777398e-02 +2.00163666e-02 -8.06301832e-02 -1.40393347e-01 +1.09416284e-01 -4.11056243e-02 +1.09201752e-01 -7.80834183e-02 +4.35685739e-02 -7.79778929e-03 +6.35754201e-04 +3.71710062e-02 -1.05595775e-01 -7.68296197e-02 +1.13625228e-02 +1.06106065e-01 -1.43111199e-02 -2.34190635e-02 +3.70030515e-02 -2.01221704e-02 -7.57586025e-03 +7.10368529e-02 +4.12978381e-02 +1.05985954e-01 +4.80201878e-02 +1.55492201e-01 -2.99713705e-02 -1.86978914e-02 -1.17295794e-01 -7.09027946e-02 -1.21786773e-01 +1.19020700e-01 -9.77891013e-02 +4.16495614e-02 +9.68719572e-02 -9.41842198e-02 +1.47645041e-01 -4.56690742e-03 +3.59631144e-02 +6.84447512e-02 -2.15989705e-02 +6.78717569e-02 +1.42249987e-01 +2.15601884e-02 -8.13356936e-02 +1.00589618e-02 +5.51195815e-03 -1.00636750e-01 +1.42020509e-02 +9.41580757e-02 +4.02162317e-03 +7.48412013e-02 +9.89043787e-02 -1.02925688e-01 +1.75713748e-02 -5.94333448e-02 -8.34757388e-02 +8.49190578e-02 -2.72693746e-02 -2.41451524e-02 +1.02395803e-01 -9.61152837e-02 -1.29812345e-01 -3.89173664e-02 -5.33162951e-02 +1.70304880e-01 -3.94448861e-02 +2.08383482e-02 -6.36105910e-02 -2.27704030e-02 -5.67926392e-02 -6.52968232e-03 +6.30587488e-02 +1.05019934e-01 -3.92713360e-02 +2.17172429e-02 -8.58509243e-02 +9.53096449e-02 -1.10313714e-01 +2.42090579e-02 -2.56460235e-02 -1.02142066e-01 +5.26374876e-02 +1.09633654e-01 +7.96966924e-05 +1.73374601e-02 -3.66662163e-03 +1.26383275e-01 -1.58466157e-02 -8.23510587e-02 -2.77337935e-02 +1.37579590e-01 +9.33619682e-03 -4.73636575e-02 -3.50971445e-02 -1.21872291e-01 +1.35386795e-01 +1.07670985e-01 +3.78311612e-02 +5.06837182e-02 -9.94547829e-02 -9.24052671e-02 -8.50710347e-02 +5.88470837e-04 +6.31680191e-02 -1.15821041e-01 -3.40082049e-02 -9.22984928e-02 +6.27422631e-02 -1.19887870e-02 -1.14594899e-01 +5.50877117e-02 +2.97887549e-02 -9.76588279e-02 +2.89402157e-02 -3.17871012e-02 -5.45718893e-02 +7.63433576e-02 +9.85113457e-02 +1.21898435e-01 -1.46506857e-02 +1.58220410e-01 +7.00604096e-02 +9.89065617e-02 -1.04394518e-02 +8.00803304e-02 +5.46366945e-02 -6.52371645e-02 -4.58197072e-02 +8.46473873e-02 +6.85872436e-02 +1.04447849e-01 +8.68621841e-02 +7.16844946e-02 -8.28370824e-02 -5.44184670e-02 +4.77202162e-02 -7.76195601e-02 -4.00202163e-02 +3.71901095e-02 +4.07122411e-02 -5.02480716e-02 -1.12749450e-01 -1.04878061e-01 +7.71713927e-02 +1.29778206e-01 -2.29778681e-02 -4.31027114e-02 +1.25213996e-01 -4.10265736e-02 +4.67789471e-02 +7.05622509e-02 +2.76972726e-02 +1.06132858e-01 -9.26933438e-02 +2.76833493e-03 -3.23802680e-02 +9.49947571e-04 +9.30358320e-02 +1.65447481e-02 +3.93133052e-02 +9.18282345e-02 -1.81995903e-03 -7.80366547e-03 +9.00093019e-02 -3.89092206e-03 +1.13094635e-01 -1.06239185e-01 -1.43210039e-01 -1.92991514e-02 +1.25132665e-01 +5.80127761e-02 -1.05163872e-01 +8.98040086e-02 -6.80870712e-02 -5.11957742e-02 -1.09298781e-01 -4.50079292e-02 -5.21624386e-02 -7.19873086e-02 +7.62160718e-02 +6.87994361e-02 -2.01063659e-02 +1.07398011e-01 -3.30789038e-03 -1.00246239e-02 +6.99224696e-02 +2.95324461e-03 +1.34945169e-01 -5.91532961e-02 -1.97208598e-02 +1.08232751e-01 -4.06238176e-02 -4.84749712e-02 -2.83027980e-02 -1.00213669e-01 -1.54123232e-01 +1.07726507e-01 -6.78161532e-02 -3.99682531e-03 -7.91920722e-02 -1.27135431e-02 +8.24863315e-02 +1.04738891e-01 -5.53899221e-02 -8.63221809e-02 +5.01366742e-02 +9.86556709e-02 +5.03753088e-02 +2.05643591e-03 +6.70054406e-02 -2.25852393e-02 -3.29226591e-02 -9.10730846e-03 -2.65789926e-02 -1.07921697e-02 -2.29917504e-02 +3.57030630e-02 -1.11886658e-01 +9.53064188e-02 +1.12432390e-01 -1.55997765e-03 +3.58638093e-02 -5.81283122e-02 -8.56669713e-03 -3.47951613e-02 -1.06578380e-01 +1.25029668e-01 +1.21660996e-02 +5.63265644e-02 +8.97656530e-02 -8.36127475e-02 -3.67904268e-02 +9.64557379e-02 +4.07119766e-02 +1.96553161e-03 +9.21556428e-02 +7.69043490e-02 -1.19574830e-01 +4.96043032e-03 -4.66943309e-02 -5.68316923e-03 +1.28276870e-01 -7.58495778e-02 +4.17067297e-02 -2.16945037e-02 +1.37451396e-03 +8.12966377e-02 +9.22713950e-02 +1.97425876e-02 +1.23721130e-01 -1.08251609e-01 +7.89953582e-03 -9.00491253e-02 +1.07678548e-01 -4.26990427e-02 -9.24716890e-02 -6.26335889e-02 -1.23437911e-01 